65 100
london 0.0040663327 0.000255208 0.00048545247 0.0046777846 -0.0019742604 0.002128889 -0.0037542682 0.003015241 -0.003337647 0.00395273 0.0039539454 -0.004369482 -0.005019884 0.0008064209 -0.0034669999 -0.0027864214 -0.0023457834 -0.0019808284 -0.0029356675 -0.0019500523 0.002735524 0.0038505073 0.0025921888 0.003011518 -0.004764756 0.0002564781 0.004964753 0.001800857 -0.0016886845 8.044555e-05 0.0039740307 0.0039896453 -0.0039249426 0.0049051642 -0.0022611383 0.0010354095 0.0024699129 -0.003957826 -0.0025807852 0.003911395 -0.00034017192 -0.0016216341 -0.0040891604 0.0047010304 0.0021399006 0.00472233 -0.0044964673 0.0006954564 -0.0006420389 -0.0020352427 -0.0034416027 0.0024525018 7.9041485e-05 0.001994621 0.0035204682 -0.0016472676 0.0014726955 -0.0021726391 0.0023565025 0.000467468 0.0025114482 0.0024792813 0.0023428095 0.003795095 0.003277864 -0.0039834436 -0.002050275 -0.0043362393 0.0041496577 -0.0007084665 0.0013989581 0.0010434586 -0.00043258874 -0.002520677 0.0015450532 0.001835379 -5.35719e-05 0.0026251 0.0012750207 -0.0011068964 -0.002769383 0.0038879637 0.00046083043 -0.0027821588 -0.0013506039 -0.0011029101 0.003315623 0.00089131127 0.0023364858 0.001091354 0.0021434797 0.00023376719 0.0021305536 0.0048236595 -0.0006663656 0.0043983837 -0.00045212382 0.0039470727 -1.3958873e-05 0.001877293
loot 0.0015967139 -0.0040727356 0.0015087525 -0.0037699617 -0.003665234 0.002122563 0.0039434223 -0.003427083 -0.0032066754 0.003913375 0.0045778714 -0.00018969104 0.0010157881 0.00045042546 0.0024617591 -0.002851047 -0.0047374754 -0.0026628603 0.0023572207 -0.004045744 -0.004771 0.00012550554 0.002396349 0.00062211114 -0.003938069 0.0023298527 -0.0022211906 -0.0010999766 0.004468628 -0.0042737173 0.0045506204 -0.00021397109 0.0009606869 0.0036118 -0.00023732196 0.0004955905 -0.00013364892 -0.0007376605 0.0008215434 0.000862695 0.00026574408 0.0008152251 -0.0015272012 -0.0009177636 -0.0027291812 -0.0011798299 0.003387866 0.0049691433 -0.0044976305 -0.0037676943 -0.0031840682 -0.0035226748 -0.004179439 -0.0012391268 0.0014267127 -0.0025659746 0.002183739 -0.0026500255 0.0037320051 -0.0042103636 0.002811065 0.0029071113 -0.0010319051 -0.0044479934 0.003289376 0.0013209311 -0.002674872 0.0030661337 -0.0011451442 0.002395475 0.0022030117 -0.0028058703 -0.00032637164 0.003063285 0.0014916 -0.0048290244 0.0004858668 -0.0024242175 6.14622e-05 0.0044836 0.0029139244 0.0034165485 -0.0014343043 0.0033735742 -0.0025419998 -0.0020927547 -0.004373581 -0.0024278294 0.001830368 -0.004715797 -0.0004915467 3.2858585e-05 -0.0014835342 0.0037490155 -0.000948588 0.00265235 0.0049531832 0.001819635 0.0041584573 -0.003390446
social 0.0033669008 0.0037881597 0.004673541 0.0005098519 0.0022869247 0.00011365309 -0.0038021985 -0.0039557368 -0.0014181747 -0.001966831 -0.003621424 -0.003310354 0.0010264171 0.0028077366 0.0010469009 -0.0016242694 0.0019919572 0.003824826 -0.0004801055 -0.000112128866 -0.004238895 0.003979442 -0.0017508115 0.0011460586 -0.002357255 -0.0038594326 0.002251422 -0.00060152943 -0.001030533 0.0012800181 0.0045991405 -0.0024762347 -0.0019035031 -0.0036937338 0.0032761157 0.0018647579 -0.0014289903 -0.0033769102 0.004923054 -0.0037021828 -0.0017967866 0.0028879845 -0.0006085478 0.0043282043 -0.00050821 -0.0046027466 0.0024808485 -0.0026091966 0.0039365487 0.0029369746 0.00252443 0.0040367646 -0.0032395374 -0.0023789608 0.001865422 -0.002283222 -0.0033614386 0.0037236796 -0.0015502827 0.0046337647 0.0048374813 -0.0035356807 0.0045880005 -0.0022040196 0.0017337363 0.00030739946 0.00094687095 0.002466896 0.0035257663 0.0030120912 -0.0003559595 0.0023910867 -0.0013143072 0.0023111063 -0.0016022898 0.00027273817 -0.0025387425 0.002947675 -0.0013729142 -0.00031110924 0.0036430408 0.0033417207 -0.00063849374 0.0035201495 -0.0015642616 0.0033072173 0.0007643234 0.00079253357 0.0039695287 -0.00329747 4.6669156e-06 0.00498533 -0.0019961738 0.0042036665 0.0027521385 -0.00013693843 0.00018813064 0.003107728 -0.0022218314 0.0046986397
blazes -0.0035585514 -0.00078871223 -0.00041051314 0.0027996013 -0.0016012277 0.0029876558 0.002734499 0.003965127 -0.0013201896 -0.00027174095 0.004758187 0.0022908794 -0.0034325568 0.0048973463 -0.002741701 0.003314217 0.0018319876 -0.0019833376 -0.00056459446 0.00046132566 0.0046116523 0.002495274 0.0017192975 -0.0042084567 0.0007000657 -0.003409682 -0.0016344597 0.0020107517 0.0041520987 -0.0049514286 0.0034824696 0.0018819678 -0.00072651386 -0.0030378804 -0.0029261382 0.0018424254 0.0008212219 -0.0044336603 0.0039244066 -0.0014219063 -0.0017236222 0.00051756867 4.6677458e-05 -0.0041767214 0.0027123517 0.004265012 -0.004496624 -0.0023664145 0.0023391908 -0.0008112102 0.0019852575 0.00022946803 -0.00087582844 -0.00439025 0.0039494773 0.00032304644 0.0043666074 -0.0032399378 -0.004572594 0.0012649335 -0.0037781103 -0.0047799475 0.0005668296 -0.0019803997 -0.0009282147 0.0023683535 -0.0018635477 -0.0042143827 0.0043063737 -0.00018633775 -0.0004640461 0.004574713 -0.0011262016 -0.0029977986 0.003649922 -0.000543277 0.0011099436 0.0032211447 0.0033645418 0.0020057252 0.002123227 -0.0023443713 0.0046896846 -0.0048704217 0.0039298176 -0.0026442655 -2.2393238e-05 -0.0020756316 0.004870298 -0.00375211 -0.0020069703 0.004407177 -0.00010552354 -0.00056929886 0.0040095015 0.00087858865 0.0033532532 -0.0014086971 0.00227074 -0.0023910536
riot 0.0016030543 0.0035156875 0.00057104556 0.0018821853 -0.0034345095 -0.0012616066 0.00055739813 -0.0029050917 -0.0046804743 0.0030134108 0.002989587 0.00041044122 0.00074009947 0.00427293 0.0022477598 0.0034248948 -0.00095782155 -0.0014229886 -0.004407644 0.0047272416 -0.0030827608 0.00077400234 -4.3460976e-05 0.004487757 0.0032181279 0.004315275 0.0010632816 -0.0038833597 -0.0023392208 0.004559987 0.004923389 -0.0043441444 0.0019546794 -0.0025164792 0.0016765934 0.0014483246 -0.0008306496 0.001927131 0.004015526 -0.000410738 -0.0036102354 -0.0049657794 0.003109261 0.0028159441 0.0037948077 -0.004842968 0.0020895419 0.0041620466 -0.0026350105 -0.0043489328 0.0011926767 -0.004465872 -0.0039248797 -0.00033935322 -0.0015546688 0.0024096805 -0.0006511294 -0.0041768374 -0.00036407937 -0.0016365071 0.00057625154 -0.0026733258 0.0041892095 -0.0023194174 -0.004185615 -0.00095920253 0.003382011 0.0045449343 0.0048941025 -0.0024573684 0.0030197217 0.0006705592 0.0037869066 0.0038453888 -0.0046157 -0.0005300883 9.3365474e-05 -0.00080766156 -0.003178326 -0.0018636539 -0.00056819816 0.0042909617 0.0030815967 -0.0020506938 -0.0029402464 0.0026522009 0.0017672605 0.00442258 0.00236449 0.004003732 -0.0019159096 0.003720217 0.0029215803 -0.0027443352 0.00010007236 -0.00038058608 -0.0020933957 0.0014715939 -0.0010772562 0.0009907617
massiv -0.0020661321 -0.003934552 -0.0021707176 0.00084263267 0.002658541 -0.00038480005 0.00080348464 0.0030856584 0.004518386 0.0021683443 0.0010230984 0.003538662 -0.0041269744 -0.0037520959 0.0009503886 -0.0040024086 -0.00095113117 -0.0032849933 0.003626579 -0.0024456703 0.0020206892 0.0029384696 -0.0019651202 -0.0018313928 0.004135521 -0.0017002631 3.2312753e-05 -0.004169409 -0.0016167308 0.0043104286 -0.0017682306 0.0005974884 -0.0042016883 0.0034757871 0.0021995292 -0.0035869712 -0.0025625427 0.004036468 0.004407364 -0.0035644504 0.001995662 -0.0028805453 0.00368382 -0.0022121998 0.0019652161 -7.8266225e-05 0.00041856675 -0.0035807837 -0.0045660064 -0.00038955623 -0.0048003066 0.0049945265 0.0038082856 -0.0025388664 -0.0037772772 -0.0002025576 0.004737386 -0.0039304066 0.0007131858 -0.0010300565 0.0005594615 0.0047633825 -0.0019577944 -0.0048827813 -0.0019403808 -0.0018798277 0.001091438 0.0025036281 0.0024907468 -0.0041232975 0.003006591 -0.0036980761 0.0026184148 0.0029014966 -0.0024321736 -0.003206742 -0.0017425328 0.0027695822 0.0015624994 0.004302162 0.004488429 0.0025251932 0.002532055 0.0037309565 0.003949618 -0.0020817781 0.0010452329 -0.000653132 -0.000979009 0.004167632 0.0032084233 0.00032422759 -0.0031617088 0.0031986053 0.0010464146 0.00066886126 0.0050033336 -0.004566037 -0.004731984 -0.0025275317
crime -0.00074902445 -0.003523569 -0.001397246 0.0044997022 0.0038359035 0.0026426937 0.0025823393 0.00017402045 0.0014616611 0.0033169508 0.0008628433 -0.004556496 0.0021350197 -0.004874818 -0.0040147426 0.0008462482 -0.00013913205 0.0040343124 0.0016712116 -0.0018324569 -0.004982726 0.0037422192 0.0019862892 -0.003984587 -0.004258102 -0.0024674672 -0.00026541416 0.0029402198 0.0044166446 0.0040178895 -0.0011938115 7.3252064e-05 -0.0032834392 0.0023920648 0.0041692224 -0.0044999043 -0.0024833723 0.0026796088 -0.004620531 0.0036445484 -0.0043930323 0.0042968923 -0.0046364153 0.0045544696 0.0044817803 -0.002609597 -0.00019303108 -0.0016720993 0.004300737 0.0034745384 0.0033044366 0.004924044 -0.0039501935 0.0016825387 0.0025677888 -0.0036289352 0.0017343801 -0.0020215176 9.2531205e-05 0.0030518642 -0.002568405 0.0020184838 -0.0004048565 -0.001667095 -0.0045113834 0.0010686581 0.0034572561 -0.0019882405 0.00069238746 -0.0016322322 0.00052851916 0.0013609243 0.0023909956 0.0027107808 -0.000824551 0.0029529897 -0.0037299932 0.00090884743 -0.00090166595 -0.004913127 0.0033947336 -0.00307902 0.0045424565 -0.004815894 0.003526877 0.0031517078 -0.0010065804 -0.0041272403 -0.0038960997 0.003946462 -0.0005296989 -0.0013234224 -0.0028562478 0.0033336312 0.0034244617 -0.0033630724 0.0046702283 -0.0011969388 -0.00038330545 -0.004430584
media -0.0025957718 -0.0026083067 -0.0019597232 0.0023194894 0.0016272353 -0.0046966104 0.0009530179 -4.5816738e-05 0.004827473 -0.003071522 0.0038531937 0.0030182553 -0.0047660014 -0.00029376463 0.0028875489 -0.00061500544 0.0045298464 -0.00094273285 0.0032579054 0.0043086954 0.0004926436 -0.004670676 -0.0030459254 -0.004737407 0.0025254728 0.00062549004 -0.00081308006 0.0037451393 0.0034953656 0.00039452425 -0.002779635 -0.002603041 -0.0014809684 -0.004732893 -0.0033593783 0.0010494783 -0.004391632 0.0023926739 -0.00055590924 -0.00039602182 -0.0005250596 0.0022829955 -0.0005986091 0.0015300412 -0.0019326379 0.0014149945 -0.0023986825 0.0007086747 0.003863703 0.0026092774 -0.0049909265 0.003837546 -0.0038327957 0.0020624935 0.0049492447 -0.0007595479 -0.0028400437 0.0017818058 -0.00029329766 0.0033325055 0.004987684 -0.0038283898 0.0021805875 0.0019354385 -0.0042359983 0.00479728 -0.0027910934 0.0032149977 0.0036779977 0.004840346 -0.0034209245 0.0018386436 -0.0014902761 -0.002414422 0.002859408 -0.00065920374 0.001712945 0.0011631856 0.001189651 0.0024299102 -0.0017391214 0.0005869696 0.0022377283 -0.0014785245 -0.00410192 0.0038190729 -0.0025758515 0.0027042255 -0.0007860592 0.0040998324 -0.00049034704 -0.002229173 -0.0028027815 0.00077567913 0.003367004 0.00025924426 -0.0025700477 -0.0017037458 -0.00077318394 0.0011306979
execut -0.00019383579 -0.0049690674 -0.002025752 -0.0046634655 0.0049088574 0.0039701923 -0.004074996 0.0039773677 0.00396561 -0.0047635776 0.0022288647 -0.0028510864 -0.0047204588 -0.00052901113 -0.0044886908 0.0015381807 -0.001609302 0.0020319647 -0.0005161839 0.0005201945 0.0010968571 -0.0034318112 -0.0008964275 -0.0033550067 0.0024411578 0.0013691384 0.002099905 0.0013650847 -0.00084904436 -0.0017572882 -0.004647624 0.0014002676 0.00059178605 0.003114612 -0.0034499892 0.0005864985 0.001238671 0.0015326588 0.0047200024 -0.0032476606 0.004337389 0.0020937154 -0.002074814 -0.0001203839 0.0022679819 0.0026033807 -0.004948867 -0.0028394805 0.0034386923 -0.0037389058 -0.0018259085 4.5501554e-05 -0.004247311 -0.00044396071 -0.0041740835 -0.0037694105 -0.0020429709 0.0039692093 -0.0018835168 0.0015249983 -0.00046138267 0.003662452 -0.0018454407 -6.2728664e-05 0.0010600223 0.0034437585 0.002265035 0.0001578811 -0.0021732901 -0.0015677635 -0.0026125577 0.0019536968 -0.0009704582 0.00080023275 -0.0041964506 0.0027406 -0.0013838311 0.0012300671 -0.0046068765 -0.0037346387 -0.0027656131 0.0045644464 0.0045697885 0.004409088 0.0029397558 -0.0034352262 0.0002104018 0.0002741165 0.0045321947 0.0049211644 -0.0013596745 -0.0001595893 -0.004835894 0.004488938 0.0014799545 0.004170458 -0.003722168 -0.0041093593 0.0002189192 -0.004550879
freelanc 0.0037722718 0.0014299755 -0.002549179 0.004916004 0.00042867614 0.0032394356 0.00211351 0.0030964022 -0.0043221116 0.0017763692 -0.002954711 -0.001819264 -7.478738e-05 0.003073001 0.00021817356 0.0010179714 -0.0013193814 0.0027507066 0.0025997455 0.0032011343 -0.004796127 -0.004711407 0.0044866893 0.00030413296 0.001917366 -0.001916093 0.0029487687 0.004352285 -0.00013729182 0.003704948 0.0016997557 -0.003743558 -0.0028850203 -0.003666706 0.0003234328 -0.0034561132 0.002068738 0.0040525133 -0.0012170285 -0.0022617253 0.0019604748 -0.004266419 0.00038851285 0.0007149637 -0.0048075416 -0.0041789226 0.00012306434 -0.004462459 -0.0015481967 1.1368143e-05 0.004874572 -0.0012764654 -0.0046279854 0.0026379612 -0.0039845803 -0.0035927405 0.0039957208 0.003946686 -0.002448833 -0.004662327 -0.0029424294 -0.0013480508 0.0033012654 -0.0009986146 0.0016884761 0.001520374 -0.0041931127 -0.0008052763 0.0013669897 0.002843626 -0.0034855444 -0.0008343038 0.0033148276 -0.0036169041 0.0005579848 -8.543117e-05 -0.00017660503 -0.0025099942 0.001876144 -0.004400444 0.0047921594 0.0004854534 0.0047543235 0.0016746394 0.0023157166 0.004131386 -0.0036499242 -0.00468503 -0.0022474108 0.001463142 0.0030954015 -0.0032122005 0.0039568027 -0.0038428379 -0.0036342614 -0.0018735083 0.0021391402 -0.0018569233 0.004903632 0.00014387518
weeks -0.0013899303 -0.0032279338 0.0022261427 -0.002892383 5.112554e-05 0.0038651596 -0.00081311306 0.0018402645 0.0015976272 -0.00092571136 -0.004558818 -0.00090656785 -0.00121709 -0.003174124 0.0007402407 -0.004616794 -0.0017090471 0.001625031 -0.003976765 0.0046538445 -0.0044747773 -0.0019011708 0.0030858607 -0.0002841795 -0.0015787709 -0.0034546398 -0.0014046055 -0.0010416146 -0.0031209895 0.0016537391 0.00049958326 -0.0027950832 -0.0048121125 -0.0014668677 0.0009314846 0.0026280892 0.0045362124 0.0013356368 -0.0027388749 -1.842759e-05 -0.0015205785 -0.004462615 -4.417008e-05 0.0022459612 -0.0029806087 0.00055452745 0.0027613563 0.0046324967 -0.0033474795 -0.004682412 0.0011971239 -0.0007134995 0.004853828 0.0036678563 -0.0030610813 -0.003836248 0.003432299 0.002639802 -0.0015165135 0.004391073 -0.00016018904 -0.0038832042 -0.0005629274 -0.004781916 0.002143859 0.0014565452 -0.0009895178 -0.00017766416 -0.00083238387 -0.004382444 0.0019940587 -0.00011492522 0.003060763 -0.0035377569 0.0049781017 -0.004057518 -0.0031886105 0.0036322118 -0.0017305082 -0.0012797732 0.00081778073 0.0036538264 -0.0031612855 0.0028189123 -0.0012971356 0.0014257267 0.0042232373 0.0041199573 -0.0011762024 -0.004752799 0.003745293 -6.8773734e-06 0.0021841489 -0.003627308 -0.00028017026 0.0034657095 0.0029175652 -0.0015751702 0.0036009813 -0.0020566788
citi -0.0015828675 0.004558517 0.0031018083 -0.0027252387 -0.0016596242 0.00345219 -0.0036285466 -0.0033870393 -0.00207216 -0.00081904215 0.0015874109 0.0024862858 0.001795928 -0.0009679655 -0.0020302064 -0.0014532969 0.003225056 -0.00050660665 0.004283682 -0.0019480606 0.0026527452 -0.0018904912 0.0011473405 -0.004920839 -0.001030332 0.0039943648 -0.0015732463 -0.0046364837 0.0023748889 -0.0029594372 -0.0008165156 -0.003868571 0.0031896546 0.002583012 8.565414e-05 0.0025094273 0.0044985744 0.0031609752 -0.00069327286 -0.0027864128 -0.0031814612 0.003999622 -4.605855e-05 0.004570502 0.0025689497 0.00302348 -0.0036464604 -0.0013062384 -0.004711881 -0.0028643336 -0.0018771811 0.001016081 -8.088883e-05 0.0047033154 0.0046392 0.0008096417 0.00061788457 0.00063238275 0.0042758873 0.00019157081 0.0012862156 0.0029742625 -0.0044295173 -0.0009574458 0.002257908 -0.004441462 -0.0014904466 0.0018080528 -0.0024944195 -0.002864736 0.00020210515 -0.00462749 0.0049226987 0.003969377 0.0007852841 0.0030467454 -0.00093875866 0.002970732 0.0027519749 0.0003637928 0.0013013199 0.0010673824 0.004581784 -0.0014665643 -0.0016877636 0.0017092043 0.0032572874 0.002553527 0.00042526826 -0.0042464756 -0.0023641894 -0.0008652428 0.0002719302 -0.0033102075 -0.0047352817 -0.001969323 0.0017629178 0.0039399248 -0.0045170835 -0.0002260383
explain 0.0012092597 -0.0024422246 -0.004701141 -0.0021959522 0.00024946485 0.0008791915 -0.00081233797 -0.0028460429 -0.0010263951 0.004277047 -0.004964312 0.0043726726 -0.0041254032 -0.00040290717 -0.00086672395 -0.002273709 -0.001583654 0.0011845761 0.003088648 0.0009018716 -0.00051757996 -0.0018083919 -0.0023199893 0.0039217346 -0.003667939 -0.0026214453 0.0031484494 0.00096293626 -0.0017359339 0.0008801377 -0.004460078 -0.00094456476 -0.0034539192 -0.00041361214 -0.00042596625 0.0046749497 0.0029280167 0.0032165213 0.0043072375 -0.0019882855 -0.0012058862 -0.0036346947 0.0019425502 -0.0048068315 0.0035496864 -0.0013030258 0.0022875576 0.0034308287 -0.0010841622 3.1219275e-05 0.0029356638 0.0030469543 -0.0020352553 -0.0020446726 0.0023919034 -0.0029902242 -0.0023126912 -0.002541167 0.003579478 -0.0043092477 -0.0049748784 0.0040496965 0.0007665194 0.0010491735 0.0037623928 0.0040038167 0.0011645883 -0.004129737 0.0044007623 -0.0027744311 -0.0018972697 -0.0018148798 0.0040306514 0.0020788468 0.0011035859 0.0027879425 0.0033427028 0.0044139586 0.0049632513 -0.0016151652 -0.004424027 -0.003138487 -0.0033628906 -0.0022973327 -0.003612998 -0.00026871974 -0.001088515 0.004167872 0.00368688 0.00261898 -0.004969953 0.0021291545 0.0027640082 0.0010037682 0.0015786397 -0.00039564932 0.002207678 0.0013963615 0.0045972876 -0.0010166138
unrest -0.001154779 -0.0044163126 0.0010693542 -0.0002578679 -0.0004568542 0.00070840924 -0.00013611656 0.002682074 0.001009247 -0.003963209 0.001261267 0.0027122297 -0.0006655362 -0.003580325 -0.0004606148 -0.0039626174 -0.0028489158 0.0022801033 -0.0037576435 0.004205812 -0.004990311 -0.0025189552 -0.0013981687 -0.0007271396 0.0034382206 -0.0033671462 0.001175186 0.00074732344 0.0033895918 -0.0022300545 -0.00045609823 0.004427621 0.0015270388 -0.002423088 -0.003463913 0.00426792 -0.0026999523 0.001436041 -0.0020050956 0.0038394476 0.0030359738 -0.00038504394 0.0026367719 0.0036744387 0.0037266533 -0.0035401036 -0.004245034 -0.003074452 -0.0035321827 -0.000303673 0.0044973367 0.0020919705 0.0046248753 -0.0011354226 -0.003104513 -0.002808952 0.0005544776 -0.0015644945 0.003300025 -0.00047862128 0.0010371689 0.004289913 -0.0040664985 -5.4033368e-05 0.0040306887 0.003127243 0.0011222336 -0.0007329537 0.004480349 -0.0012425648 0.0010859489 0.0018652957 0.0038562461 -1.8736493e-05 0.0049869316 -0.0034649153 -0.0040336247 -0.00066534925 -0.0019508717 0.0023072045 0.0013997417 0.0016255175 0.0026329602 0.0042471737 0.004205995 0.00015553791 -0.0037664927 0.0006629691 -0.0038145438 -0.0016547699 -0.0017942119 0.0015699364 0.0010883473 -0.0010737905 -0.0031018823 0.0030003695 -0.0034443086 -0.0043507307 -0.00012925564 0.0002183175
caus 0.0005410722 0.0033787813 0.0006641564 0.0036012935 -0.0027200463 -0.0036819652 0.0024598613 -0.00088421395 -0.0048368564 0.00046846882 0.0022310668 0.002823708 0.0044365055 -0.0044954526 0.002455636 0.00023511291 0.0016481059 -0.0036131323 -0.0008707146 0.0010844513 -0.00373389 0.0046985582 -0.001119347 0.0025779563 -0.00050480553 -0.0019629044 -0.00083459535 0.0015763527 0.0007445427 0.0029358417 0.004301152 -0.0040117027 0.0022910766 -0.0004494366 -0.00294818 -6.743477e-05 0.0024760268 -0.002185656 0.00033274942 0.00060612784 -0.0034584082 -0.0043484685 -0.0006798021 0.0015549149 0.0047834176 0.0042615444 0.0040154327 0.0036635955 0.00032655546 4.8703136e-05 -0.0034982576 0.0016057099 -0.004344845 0.0027556138 0.004192365 0.0043556914 0.003036188 0.0019356455 -0.003492079 -2.2555227e-05 0.0048434986 0.002810044 4.7783215e-05 -0.0035449162 0.0019977894 0.0025204837 0.0037559145 0.002735243 -0.0032506671 0.0010089359 -0.0018745833 0.0021294071 -0.00458341 -0.0030677894 0.0021063746 0.0010592598 0.00015880814 -0.00047283503 -0.0026742024 -0.004711835 -0.0007050958 -0.002453222 0.0030881867 -0.00082864315 0.00039797468 0.0030137382 0.0029977139 -0.0036574055 -0.0030465762 -0.004065593 0.0044666324 -0.0038265274 -0.0003474737 -0.0049279924 -0.00044029253 -0.002826314 -0.0031569924 0.0021591247 0.0012116298 0.0005594012
exclusion 0.0045793056 0.0022949297 0.0046939175 -0.0028246557 0.001760424 0.00045777304 -0.0043980516 0.00065222086 0.0036440876 -0.004691729 -0.004618857 0.0018683053 -0.0011790228 -0.004745699 -0.0026287572 -0.003552568 -0.00059547595 -0.0010341735 0.00012251452 0.002434283 0.0017774863 0.0017897736 0.0030554396 -0.0005459617 -0.0020014087 -0.0045870775 0.0034712767 -0.0017301027 0.001218788 -0.0016531065 -0.004714768 -0.004775992 -0.0016125283 -0.004020141 0.004599167 -0.00080972456 0.0043703387 -0.0008460211 0.0041501047 -0.0022929392 0.0014501411 0.0013838891 -0.0029658682 0.001992491 0.0028819 -0.0048874253 0.0009882785 -0.0015498167 0.004123776 0.0034728663 -0.004933201 -0.004592174 -0.0025168636 0.002343476 0.0047018602 0.0041648154 -0.003668858 -0.0015599512 -0.0012510264 0.0044532027 0.0018392124 -0.0025707344 0.0009006044 0.0008430179 0.0007893098 -0.004588963 0.0034078467 -0.0015188423 0.003193859 -4.830994e-05 -0.0042928476 -0.0018140698 -0.0030578824 -0.0019825324 -0.00039830196 -5.762817e-05 -0.0010014761 -0.003920114 0.0024132172 0.003178237 -0.0036053443 -0.000108864726 -0.0005509774 -0.004186737 -0.0048480197 -0.0011249253 -4.9295057e-05 -0.0007297256 -0.00042795847 -0.0010457821 0.0028427253 -0.002128817 0.0042086756 0.0022361984 -0.0032881827 -0.0030385414 0.0033965372 0.004926553 -0.004696454 0.0047526048
scale -0.00039316414 -0.0010858481 0.0008148006 0.0033446494 -0.003389549 0.00037987766 0.003626094 0.0007359307 -0.000725494 0.0031511416 -0.0011760253 0.00082151213 0.0023693887 0.0039221277 -0.0032950563 0.0014126273 0.003447 0.0028918127 -0.0039034442 -0.00017341047 0.003166564 0.004269647 -0.0032140228 -0.0043316344 0.0019764483 0.001745925 -0.0028185335 0.0016676877 -0.0046890196 -0.0010047713 -0.0022580863 -0.0016679089 -0.004412253 0.0037465298 0.001608941 -6.111155e-05 0.0016610828 0.0018672477 0.0008235203 -0.0026958962 -0.0024233542 0.00053501833 -0.0017943683 0.0023166481 -0.003078471 -0.0028216252 -0.003578539 0.0028772024 -0.0025713479 0.00045655752 -0.0041496633 -0.0042508407 -0.0016156086 0.003287757 -0.0023618743 -0.0047838287 -0.00025802405 -0.00014556301 0.0010484981 0.0021385313 -0.0011015406 -0.004678676 0.0027155387 -0.00226545 -0.0031723594 0.0011342834 -0.0033301397 -0.0038682874 0.002950879 0.0037767142 6.121442e-05 0.0009595992 -0.004982326 0.00023944462 -0.0014068759 0.0034027137 0.00255028 -0.0028824601 0.0018963271 -0.0043479344 0.0036475519 -0.004793987 0.00021188245 0.0027574513 -0.00085569697 -0.0036652826 -0.0026178844 0.0016918608 0.00082794717 0.0028259829 0.0024912355 -0.0036691315 -1.1007565e-05 -0.0014748331 -0.0022240602 -0.0005166252 -0.004105218 -0.00026432786 -0.0017250781 0.0030203734
still -0.00038946676 -0.0005336113 0.00026470423 0.0029691493 0.003458991 0.003429919 -0.0034533606 0.0013047591 0.0024226552 0.003942983 0.0032218453 -0.003482101 0.0018354902 -0.0042115124 -0.0045836153 0.004074414 0.0045252484 0.0019923274 0.0034561509 0.0019169232 -0.002178565 0.0033829287 0.0028203514 -0.0039296076 0.0012148827 -0.0005647132 -0.0041971733 -0.0047673094 -0.0006049504 0.0019166168 0.0019168828 -0.002990501 0.0049128816 0.00472023 0.0017846152 -0.001044632 0.0022141733 -0.00067085726 -0.003226279 -0.00445151 0.0020764929 0.0025770557 -0.0032444685 -0.001884187 0.0030537273 0.0027115513 0.0048569394 0.0036583988 -0.0046270452 -0.0033882644 -0.0040127286 -0.0027451683 -0.0011898945 0.0046227127 -0.001174194 0.0006342305 -0.0029236968 0.0036893182 -0.00020243475 0.004406525 0.0049585258 -0.0047979387 0.0041660382 0.0006664601 0.003690185 -0.0049284655 -0.0007434414 -0.0048641157 0.0044910135 0.00019388978 0.0018663487 -0.00043320202 0.0012686707 -0.0032927298 0.0037088094 -0.0049575157 0.0028953678 0.0036038815 -0.003526051 -0.0014699879 0.004010131 -0.0022258472 0.00272684 -0.0022903555 -0.0032544099 -0.0023860824 4.5030498e-05 0.003744798 0.0003744872 0.0027669673 0.0014360065 -7.528307e-05 0.0013900957 0.0029081292 0.002162294 -0.0022299292 0.0022787177 -0.0011862877 0.0014963406 -0.0033665453
riots -0.0047208266 -0.0019419016 0.0042245225 0.00019014158 0.0015803978 -0.0049597993 0.0024867284 -0.0033318633 0.00019371805 -0.0034733238 -0.0011654862 0.0021127295 -0.0019669572 -0.0037295914 -0.0027300932 0.0049000946 0.0024610632 0.0014661388 0.0011290339 0.003682535 0.0024042558 -0.0043088133 0.0011793285 0.003225672 -0.00020886553 -0.002764135 -0.0038181767 -0.003921579 -0.00030755866 -0.0026366082 0.0008902604 -0.0039472855 0.002121428 0.0029567045 0.003019898 -0.0015366621 -0.0013558338 0.0026286514 0.0019658438 0.00029061796 -0.003042572 -0.0010944362 -0.0018893954 -0.0019657963 -0.0010712685 0.0017683404 -0.00029547454 0.003904845 0.002673942 -0.004071233 0.0047450913 -0.00030118198 0.004626831 -0.0033222374 0.0014228895 0.004704793 -0.0014514197 0.0022368883 -0.0043559014 0.0024435087 0.0005468319 -0.00023905774 0.0042620087 0.001964675 0.0004068908 -0.0023687673 0.003280217 -0.0031523032 0.0020811586 0.0047451905 -0.0011389172 0.0031309093 -0.003158953 0.002592831 -0.0004843822 -0.00062965095 -0.001359566 -0.0044901753 -0.0014967418 0.00076254917 -0.0009062504 0.00348752 0.00421608 -0.003326395 -0.0040952307 0.0040388796 -0.003424522 -0.0033073812 -0.0018406532 0.00032249087 -0.0030515038 0.0038351135 0.0031807162 -0.0005683163 0.0048951986 -0.000119131124 7.6317425e-05 0.0019187029 0.0027382644 -0.004431642
bbc -0.004485224 -0.0039553107 0.0016316525 -0.004007955 -0.00024551162 1.3449971e-05 0.00030061425 1.3461195e-05 -0.004492198 -0.0035972155 0.0023526042 -0.0024829616 0.0032777442 -0.00202726 -0.004060718 -0.003055196 0.00448793 0.0026880815 0.0013485275 0.00300635 0.004900948 -0.0032242527 -0.0028531412 -0.0019015728 0.0012153788 -0.0031352404 0.0034357877 0.0028210762 -0.0023575788 0.004159938 -0.004547894 -0.0016127597 -0.0003022699 -0.0047555724 0.00088279904 0.004016816 0.004786648 0.002884387 0.00043047132 -0.0029658985 0.0022533592 0.001997388 -0.003566692 -0.0027837506 0.004551422 0.002984949 -0.0042624874 -0.0017164408 0.0011987775 0.0003417941 -0.00047118752 -0.0046354183 -0.0003346586 -0.004442162 0.0048678387 -0.0024305421 -0.004957094 0.0032592972 0.0014368095 0.0030785888 -0.0026410979 0.004302126 0.004316766 0.0020462424 -0.00094527815 -0.0016662007 -0.0016954101 -0.0036135449 0.002274586 0.0025798671 -0.00014605111 0.0009537687 -0.004645786 -0.0026096636 0.004449296 -0.0043907943 0.0032051872 0.00024561182 -0.004808773 0.000677819 0.00039704572 0.0018653134 0.0034399803 -0.00092928536 0.001478493 -0.002225159 0.0044953376 -0.0035259551 0.0034446504 0.0036916006 0.0001994365 -0.0032758873 0.0036032752 -0.0011989289 -0.00088900916 0.0027738647 0.0034429291 0.0024866804 0.0028427453 -0.00024046625
never 0.0033037795 -0.003881871 0.0020150729 0.00227482 0.0038963745 0.002175974 0.0009633821 0.0013774413 0.0018647172 -0.0009825185 0.0026018675 0.0036987313 0.0044275257 -0.0019564251 0.0023813352 0.004340854 -0.004551706 0.0027019905 -0.0041272 -0.0027465287 -0.00035083952 -0.0015892369 -0.0032472135 0.00036028403 -0.0038469452 -0.0032370638 0.0045011593 0.002301544 -0.004428293 -0.003975182 0.0038003786 0.0041996203 -0.004729905 0.0035703816 0.0029871804 0.0030134008 -0.0012778504 0.0034463718 -0.004124176 -0.0020523225 -0.0008119001 0.0012528616 0.0015231604 0.002394859 0.00024389765 -0.004552384 0.0010232122 0.0036917534 0.00077196764 -0.00093149935 -0.0011294683 0.003643991 -0.003682932 0.004882989 0.0036752354 -0.0022211638 -0.00019147401 -0.0023404488 -0.0004367601 -0.00084005273 -0.0035886164 0.0038831884 0.0020688954 0.0040675 0.0040562297 -0.0008671663 0.0047871238 0.0018567413 0.0016150408 0.0043919072 0.0019285398 -0.0028372454 0.0043162173 0.0006263537 0.0041227858 -0.0042588036 -0.0035778047 0.003565214 -0.0046493397 0.0022992007 -0.00421486 -0.0019096755 0.0024629005 -0.0037007893 0.003508498 -0.004970128 0.004125286 0.002594462 -0.0018357114 -0.0047737965 -0.0038887965 -0.0033356696 -3.1857722e-05 -0.004386814 0.0009829199 0.0043872804 -0.004151836 -0.0046970784 0.002980343 -0.002309718
replay -0.0033275085 0.0017744241 0.004913686 -0.002179912 8.5488355e-05 0.0022336857 -0.003279765 -0.004785289 -0.0005573779 0.0030648883 -0.002637577 -0.0029357334 0.0020561023 -0.0035782678 0.003696803 -0.0008418953 0.00081864704 -0.0028228194 0.000788603 0.0024951117 -0.0014107086 -0.0015947024 0.00030500648 -0.0023745748 0.00013972072 0.0010324905 -0.0033928086 0.004854666 -0.00023770097 0.0010064828 -0.0016008202 -0.0040111896 -0.0039821113 0.003987387 -0.0027391834 -0.004136093 -0.0047392626 0.00049467676 -0.0013715511 0.0021079471 0.0032121832 0.0022881764 0.002049676 -0.0024597065 -0.0023268145 -0.004159477 -0.004932306 -0.004160915 -0.0035858538 0.0045875725 -0.0024521083 -0.0029936694 -0.0011264638 -0.0041183904 0.0012822517 0.0029313783 -0.0035610981 -0.0027499201 0.0037766264 -0.004055001 0.0030060075 -0.002972204 -0.00095208705 0.004409723 -0.0043895384 -0.0044824025 0.0045740115 -0.00040884814 -0.0011444591 0.0011688087 0.0017521512 -0.004538936 0.0009599105 0.0012673594 0.0017413843 0.0009605426 0.00090792135 0.0024358241 0.0012637855 -0.0039096265 0.0005125649 0.0032522539 0.004014569 0.0037792122 -0.00384728 -0.0021067108 0.0023128316 0.0037859373 -0.0032697236 0.003751694 -0.004029719 -0.0024520801 0.00021800266 0.0019582214 0.0028537412 0.0014700582 -0.002015531 -0.000365166 0.00082883105 0.0033628603
send 0.0025358205 -0.0022865734 -0.0028839875 0.00020233386 0.0030344597 -0.0036753293 -0.0039010353 -0.00029936197 0.0029748545 0.0035432351 0.00042840966 0.0026974478 0.003414003 0.0037452949 0.004072779 -0.003709845 0.0017212442 0.0013784376 -0.0010854696 0.00064505264 -0.004205323 0.0004893455 -0.0019730155 -0.0036544695 0.002635093 0.0024804936 0.0022998282 0.0029432306 0.00084623514 -0.0025365073 0.0021823866 0.0022718012 -0.0007281149 -0.0034541923 -0.0038521052 -0.001743124 0.00022502604 0.0025108454 -0.0009068352 0.0041816067 -0.00014352183 -0.0043725227 -0.0024003189 0.00018683841 0.0038735452 -0.00031567764 0.0048494427 0.0020379678 -0.00077284174 -0.0045936294 0.002562424 0.003379025 0.0049291523 0.0041418155 -0.004931821 0.0021032777 0.0036210557 -0.0013061749 0.00019310169 0.004478727 0.0013141647 0.0006724999 0.0011672352 -0.00022644908 0.0034941686 -0.003364731 -0.004240343 -0.0038714497 0.0013204684 -0.0024876154 -0.0015332452 0.0005497088 0.004549146 -0.0047342065 0.0017156709 0.0012240984 -0.0017837578 -0.00037495035 0.0028463579 0.0031776985 -0.0040519997 -0.003182919 -0.0023185897 0.003895832 -0.0015936175 -0.0036234825 0.0017420325 -0.00082483713 0.0009253192 -0.003422318 0.0037776716 -0.0015773285 0.0012522527 -0.0037643667 0.0006040747 -4.674495e-05 -0.0037020352 -0.004948199 0.0019957323 -0.0009310122
emi -0.0049557816 0.0013344078 -0.0043402007 0.0011708799 0.0035852748 -0.0011687475 0.00088007085 -0.003784154 0.00017652198 0.0016926578 0.004564646 0.0049661845 0.00035377502 0.003947149 0.002460131 0.0006099703 0.001955676 0.0034025372 0.004573716 0.0019483983 -0.003351168 -0.004232181 -0.0012321668 0.0022152641 -0.0045756265 -0.00078690227 -0.0013575874 -0.0018041454 -0.002189262 -0.004655523 0.0011192997 0.0010204009 -0.0022501166 -0.0034885837 -0.004723071 0.0037845308 0.00038264968 0.002783618 -0.002494339 0.000254987 0.0022670939 0.0023596277 0.00053359446 0.0034514067 0.0022468986 -0.0048738527 -0.002429175 0.00023874087 -0.0046581742 0.003997467 0.0027465404 0.0010254486 -0.004786122 0.0014978292 0.0037571664 0.004250744 0.00021555557 -0.000650421 0.0018666306 0.0011782199 -0.0037141377 -0.002602951 0.0010568836 0.002730446 -0.0018079028 0.00071172725 0.00012589655 0.0008084807 0.0012660864 -0.0009872919 -0.0020551286 -0.0010406652 -0.003953371 0.0045599323 0.0045388225 0.0037318347 -0.0015169742 5.2175255e-05 0.000506797 -0.0038574073 0.0026593695 0.0035902201 -0.0034303633 -0.0008998578 -0.0034455156 -0.0047577512 -0.0042487667 -0.00044047995 0.0047969795 0.0010475913 0.003993676 0.0010800929 -0.00022995425 -0.0010025568 0.00047074744 -0.0009743911 -0.00062087964 0.0016541962 0.0005657585 -0.004305317
bid -0.0032756221 0.000384894 0.00058042444 0.0035863123 0.003987092 -0.0038777231 0.0040837927 0.0020088789 0.0044428594 -0.0019995403 -0.0020200813 0.0047385413 0.003474962 -0.00420227 0.0036025392 -0.0031948667 0.001082386 0.00090404676 -8.544918e-05 0.004153865 0.004595267 0.0013610783 -0.002746409 0.0006412986 0.0025911287 -0.00196197 0.0046524624 -0.0020733227 -0.00058264646 0.0009715437 -0.0012554075 0.003088557 0.00067164673 -0.0027967754 0.0036865121 0.0048341826 0.0023575635 -0.0010183941 -0.0048235403 -0.003038918 -0.0015544059 0.000543752 3.2507403e-06 0.004085319 0.0034093044 -0.0031659433 0.003288502 0.0040137833 -0.0010612042 -0.0005228868 -0.0006547199 -0.003838807 0.0011297226 -0.0023270051 0.0029018982 0.003339012 -0.004586188 -0.0022732352 0.00094187056 -0.003166082 0.0041069807 -0.0026415137 4.1404314e-06 -0.004248168 0.0044626165 0.001733109 0.0006575882 -0.0041894554 -0.004229913 -0.0007480381 0.0011081559 0.0024105639 -0.0016547012 0.001174771 -0.0024333734 0.000664928 -0.00041838974 -0.0023013817 -0.0024269703 -0.00086213957 0.00052289263 0.0039028262 -0.0032378854 -0.000666771 -0.002212655 -0.0032711306 0.001276278 0.004114898 -0.0019111754 -0.0013328681 -6.301259e-05 0.00032173537 -0.00027014565 0.004340612 0.0033466013 0.0023025814 -0.00023294686 -0.004512477 -0.0037179773 0.00073326967
triathlonphotos 0.003389315 -0.0015926728 0.0013174785 -0.0049933037 -0.0047899154 0.0013810676 -0.00013850634 -0.0006467833 -0.004942815 -0.0044329194 0.004240434 0.0017556754 -0.0013319039 0.0005058756 0.00021202367 0.004520603 -0.0036075106 0.0020806887 -0.003048779 0.002626506 -0.0027835642 -0.0018454295 0.0004703355 -0.004931232 0.0013819432 0.0025615424 0.004947604 0.0029665173 -0.0012160589 0.0031550478 -0.0041869693 -0.004130317 -0.0022053733 0.000249566 0.0026511124 0.00043349786 -0.00014350284 -0.00073952804 -0.0035378174 -0.00016152012 0.0021808627 0.001201419 -0.0008731071 0.0026215746 -0.0047095027 0.001081884 -0.0028807735 -0.0015832426 -0.0010940867 -0.0012248593 -0.0041323937 0.0020387168 -0.00074126694 0.00185803 -0.0020398546 -0.0038070097 -0.002163149 0.0048334748 -0.00022981873 -0.0029920025 0.0041297874 0.003552374 -8.3960644e-05 -0.0045415103 -0.0033359744 -0.003123891 -0.0014771863 0.0041737515 0.0024817442 0.004202476 0.0005059065 -0.0037199445 0.0030543243 0.00443882 0.003492745 -0.00015282535 0.0046641203 -0.004336734 -0.0014049786 0.0019614266 -0.003260538 -0.0048095495 -0.0023100046 -0.0003882507 -0.0043136077 -0.0013633608 0.0046333144 -0.0015559956 0.0022352377 -0.001162987 -0.004350543 -0.0024592485 0.0033246747 -0.00063880684 -0.0008415094 0.003485104 0.004613804 0.00029252743 0.0014868379 -0.00096879946
prerac -0.0013416079 0.004490408 0.0037208323 0.0018381068 -0.0017932714 0.0014421816 0.0028071553 -0.0033752893 -0.0020592248 0.0014358526 -0.0046568764 0.0023236205 0.00055196654 -0.0044113114 -0.004864088 -0.002729802 0.0036112613 -0.0034387324 0.004842318 0.0016806063 0.00095753797 0.004543609 0.0014127428 -0.001651179 0.0025091283 -0.003540917 0.00092178676 -0.0036506883 -0.0022148876 0.0021749786 0.0016404503 0.0012254864 0.0044814907 0.0027392472 -0.0009935393 0.002917974 0.003943864 0.001260953 -0.001595552 0.00084321987 -0.0029505969 0.0004896275 -0.0044668387 0.0021446766 -0.0003524806 0.0008298816 0.004309068 -0.00415165 -0.0033374813 0.0030087586 0.0028454624 0.0032685304 0.0017592506 -0.0017168063 -0.0019274747 0.0013397076 -0.0015877585 -0.003074826 0.0028805695 0.0026197867 0.00066286844 0.0028671385 -0.0028264613 0.0017822825 0.0025908963 0.0013622788 -0.0021365876 -0.003045458 -0.0003608748 0.0049443543 -0.001967376 -0.003920436 0.003000397 -0.0020512128 -0.0037792702 -0.0038383233 -0.001106772 -0.0015122825 0.0015936983 0.002493901 -0.0045786337 -0.00079211855 0.00061516586 -0.0021658894 -0.0026208172 -0.002304558 0.001201492 0.0021604998 0.0033016629 0.0022281406 -0.003671606 -0.0022044189 -0.0049053147 -0.0032641687 -0.0020586306 0.0010498808 0.00081803824 -0.003240381 -0.00094186305 -0.0004025871
activ 0.0013789852 0.0029064608 -2.8152464e-05 0.0012975874 0.0012872262 -0.0011235727 0.000622362 -0.0020507085 6.336943e-05 0.0040066494 0.003661258 -0.0021812273 -0.00080311 -0.00056297367 0.0019347043 0.0035300746 -0.0029254705 -0.003908607 -0.003871184 -0.002824825 -0.0005891815 -0.0004107201 -0.0017353683 0.004196845 -0.0011641437 -0.0005344617 -0.0037152432 -0.0011991585 0.0032595934 -0.0037740301 0.0007225616 -0.0022625767 -0.0016180382 -0.002410562 -0.003860928 -0.0029991807 -0.0036982496 0.0033423256 0.0022373549 0.003880336 -0.00036186224 0.0009379722 -0.0028477435 0.0017733879 0.002787977 -0.002029073 0.0028389962 0.00091452035 -0.0011903581 0.003001486 -0.0018580735 0.0015054175 0.0019604901 0.0005151555 -0.0047834367 -0.003555951 0.0034426837 -0.0002509412 -0.0026489724 -0.004832439 0.0020709897 0.002724109 0.0032170108 0.003215707 0.0029504385 -0.0048230486 0.0006448825 -0.0027608827 -0.003931648 0.0013662283 -0.0020976155 0.003342679 -0.004184144 -0.00074634363 0.0021695103 0.0015640488 0.0045723403 -0.0008769929 -0.0023576955 -0.001286272 0.0031243372 0.0038988148 -0.0030427524 -0.0005298811 -0.00017513173 0.0037664264 0.0008349516 0.0002682076 0.0033996995 -0.0008448565 -0.0049535953 0.00083906687 0.00056829693 0.0032481574 0.0009869915 -0.003647217 -0.0046968013 0.0027543793 7.1239865e-06 0.0014945635
cleanup -0.004239058 -0.004591873 -0.0009156576 0.0024935475 -0.0006965879 0.0023386807 -0.0041817115 -0.003589339 0.0046765334 0.0025388752 0.004276109 0.00038033078 0.0013446182 -0.0028895491 0.00014015182 -0.0007166939 -0.004892656 0.00032220548 -0.004806433 -0.00050394435 0.0023760465 0.004950271 -0.0038365438 -0.0017549894 0.0001509253 -0.00067470694 -0.004783757 0.0031928946 -0.0026253408 -0.00391603 -0.0038248121 -0.0035704386 0.0004305335 -0.00014251376 -0.00038173393 0.0030034622 -0.002454513 -0.00019890511 -0.0050100246 0.0038847674 -0.0031858294 0.0041194228 -0.0045682536 0.0036784206 -0.0015917745 0.0039609005 -0.0044859145 -0.0010410751 0.0035997117 0.0045578447 0.0034442896 0.0038503092 0.0038568957 -0.001020111 0.004567115 -0.0015973544 -0.0027751438 0.0001686123 0.003568036 -0.0026894084 0.0027450002 -0.0028680926 -0.004723378 -0.0037019174 0.004556353 0.004023679 0.0046529938 0.0029023539 0.0036404792 0.0025233692 -0.0048606233 -0.004213388 -0.0022924263 -0.0026438895 0.0031161436 -0.0033204122 -0.0041531087 -6.0178772e-05 0.0038147334 0.00119513 0.0034005486 0.000971715 -0.0016964992 -0.0011901862 -0.00014593243 -0.0037928915 0.00021064616 -0.0042558387 -0.0006647045 0.0017307564 -0.00257596 -0.0021754 0.001969157 -0.003721616 -0.0012472062 -0.004457555 -0.0017842323 0.0031525067 -0.00052010984 -0.0034028962
effort -0.004701024 0.004745381 -0.0042953496 -0.0020278995 -0.003143912 0.0017422439 0.004616451 -0.0035986586 -0.0036131765 0.004103615 -0.0034227339 0.00044013295 -0.00401746 -0.0043400554 -0.0032089574 0.0016217685 0.004918978 -0.0044628237 0.0043159397 -0.0017914267 0.0009568003 0.0012568258 0.0011164077 0.0012653595 0.00024594442 -0.0045498693 -0.0031187471 0.0031243414 0.0024025294 0.0007824825 0.0048395544 -0.004868952 0.0024244857 0.00045273668 0.0047423826 -0.0042964225 -0.0017674513 0.0035811237 0.0038993305 -0.0042852736 0.002931853 0.00011143189 -0.0022427118 -0.0035369007 0.0025440163 -0.003802045 -0.004631659 -0.00036920753 0.0036692622 0.0005085562 -0.0015074153 0.002609 -0.0042268294 0.0033312442 0.00028100613 -0.0037362375 -0.0019867434 0.00436866 0.0017136348 -0.0046042493 -0.002598206 0.00046969307 -0.0036014619 -0.0007019964 0.00192145 -0.0037398273 0.0041490085 -0.0016750789 0.0018814161 0.0035159662 -0.0010303921 -0.0039712493 0.0006256521 -0.0032040142 0.0003473199 0.0038673664 -0.00042855437 0.0035109555 -0.004922814 -0.0031021864 0.0030449165 0.0007961545 -0.0031661196 0.0018513768 0.0023170405 0.00047441383 -0.00086853147 0.0049730595 0.0027375745 -0.003010875 0.004302391 -0.0007483804 -0.004362613 0.0017972407 -0.00026573482 -0.004076656 0.0036753274 0.0049113375 -0.00038926903 0.0008023801
clapham -0.004184482 0.0016486074 0.0013747903 -0.0034086069 -0.0035814864 0.0020340811 -0.0013595178 0.004786389 -0.0045320406 -0.0034178863 0.0005586872 -0.00023688002 -0.0035670572 -0.0008050331 0.0012031831 -0.0046972404 -0.0034084588 0.0016064426 0.0029549242 0.0029406897 0.0016238982 0.0023658974 -0.0037543797 -0.0028206245 -0.0030665603 0.0025473342 -0.00056393153 -0.004081346 0.00050615764 -0.00135366 -0.0019108402 0.003965971 0.0023280408 -0.0010115287 -0.0025128932 0.002841351 0.0032157064 0.003300099 -0.003809403 0.0007249458 -0.0021427374 0.00022210987 0.002561195 -0.004910102 0.00077388313 -0.0018879551 -0.0015447125 -0.00022370953 -0.0017780855 0.0028915438 0.0044918633 -0.000179523 -0.003687298 -0.0013219871 5.1238207e-05 -0.0008748327 0.00041334183 -0.0030726555 0.00053455035 0.004233501 -0.0009145069 0.004331836 0.00010722822 0.0022538523 0.00078483875 -0.00027988362 -0.0014934152 -0.0035194608 0.0020916641 0.0040613497 0.00079587236 -0.0038932022 -0.00050759956 0.00062363996 0.0028541982 -0.0026470616 -0.0017312024 -0.0016528575 -0.003142899 -0.00017220282 -0.004039758 -0.0043171397 0.0049968525 0.0042384095 0.0045743748 0.0016395121 -0.00050710596 -0.0044712164 -0.0031833816 -0.004672169 0.0011226161 -0.0002526586 0.0029741975 0.0043412847 -0.00021475294 0.004869459 -0.0010432805 0.0037017404 -0.0026532798 -0.0028451511
peopl 0.002501628 0.0013301803 0.000351535 -0.0042435275 0.0027288543 -0.0002254244 0.004022561 -0.003425703 -0.002639458 0.00197663 -0.00069902214 0.0012124423 0.0036117395 -0.00426875 -0.004971885 0.0042509506 -0.0022523096 0.0029126718 0.0030663277 -0.0038592773 -0.002684207 0.00064963556 0.0026046396 -0.0006452638 0.0022764266 -0.0035749169 -0.004225368 -0.0007329914 0.0016544191 0.00060929416 0.00062548683 0.0003810897 0.0012608203 0.003999912 0.0007846723 -0.0028097332 -0.0042001526 -0.00071782945 0.0028330882 -0.0016680759 0.0026034694 -0.0027743753 -0.0016754207 -0.0030488323 0.00029874785 -0.004071759 -0.0014309917 -0.0049317237 -0.0023006187 -0.002397017 -0.0013070547 0.0029175228 0.0046803025 0.0019790616 0.003963766 -0.002133707 0.0023306112 -0.0023619367 0.0012379334 -0.004795368 0.0027083915 0.00088439614 -0.004093011 0.0025607906 -0.004647519 0.0028599987 9.958295e-05 -0.0016950503 -0.003496483 0.0017189101 8.063789e-05 0.0040520644 -0.0006385205 -0.0042432942 -0.0048350263 0.004687683 -0.0044186087 -0.0025053066 -0.0022910242 0.0022183368 -0.0040783826 -0.0010679523 0.0009839886 0.0033169729 -0.0049762623 0.0018328844 -0.0017949126 -0.0006109011 -0.0031215348 -0.0038922646 -0.0029584777 -0.00045768186 0.0017520456 0.0012297902 -0.002352146 -0.0005548249 0.001226166 -0.002144764 0.0038764994 -0.0011118026
quickli 0.0034813015 -0.00343369 0.0006123554 -0.0011077684 -0.0028329396 0.0021704014 7.515158e-05 -0.0019289284 -0.0027648434 0.0031802787 0.00028184988 -0.0039037494 -0.002274083 -0.002489902 -0.0030425456 0.0046975208 0.0012795925 -0.0011182405 1.4783685e-05 -0.0007519465 0.0004456948 0.0032966584 0.0045077954 0.0015615574 -0.004828186 0.0048393137 0.0010142864 0.0015493385 0.004961677 0.0036872337 -0.00365481 0.0016510027 -0.0023202065 -0.0035069895 -0.003140908 -0.0010416671 -0.0025484285 -0.00087239634 -0.0035677718 0.0010393158 0.0021927427 -0.0048668305 -0.0025402785 0.0006578693 0.0027097114 -0.0049292105 0.0030987635 0.00066123134 0.004878179 0.0049906513 -0.002486457 0.0023101042 0.0044928677 -0.003550761 0.0045041884 -0.0033897024 0.0039122244 -0.0021759036 0.0043830774 0.00014569914 0.0017240325 0.0046176636 0.0036900796 0.0045328317 0.00020366728 -0.0017468047 -0.0035491795 0.0035008762 0.0002997187 0.00025823936 -0.00070459914 0.003520965 0.0037167398 -0.0025913217 -0.004635323 -0.0011815846 -0.004595948 -0.003809891 0.0037709463 0.0040247985 -0.003479715 0.0031979443 -0.0013168398 -0.0007965803 0.00054426497 -0.00021135082 0.004480289 -0.0027048015 -4.611042e-05 0.0022070918 0.00086647685 0.004891953 0.003199856 -0.0047202418 0.0030897802 -0.0011348339 0.0048253904 -0.0039189537 0.0009238491 -0.00040615635
rebuild -0.0008447013 0.0018065488 0.0008881148 -0.00331881 -0.0018620524 -0.003557124 -0.0039720056 -0.0028474494 2.126339e-05 -0.0005741033 -0.00050169777 -0.0023138686 0.0043440475 9.1918686e-05 -0.0037866796 0.0041990005 0.0028931904 0.0049660844 -0.00031472568 -0.0018426379 0.0032396256 0.0027212137 0.002840925 -0.0039952593 -0.0013225769 0.00026150045 -0.0009815424 -0.0015032894 -0.0048030852 0.0018613539 0.0024502857 -0.0047059604 0.0030575672 0.0012651643 0.0044869487 -0.0003252359 0.0007627987 -0.0038516973 0.0013693767 0.0006796289 0.0021766594 0.004439645 0.0017001868 -0.0025720412 0.0018580575 0.000646707 -0.0040507205 -0.0012677533 0.0045045046 0.0046720644 0.004729186 0.002653769 -0.0036005583 0.0013521096 0.002811991 0.0042566434 0.0012031925 0.001545368 0.0047271433 -0.0048211054 0.00391294 -0.0047118827 0.003653888 0.0016798628 -0.0030129831 0.0011335742 0.0014955639 -0.002260342 0.0047513093 -0.00040553702 -0.0031008285 0.002041085 -0.0005132284 -0.003347861 -9.073932e-06 -0.0021017676 0.0045672148 0.0012108422 0.0032051718 -0.0034372865 0.0029960277 0.0034541115 -0.0030969982 0.0021108626 0.004774075 0.0022375383 0.0024917775 -0.0032491405 0.0046290387 0.004272063 0.0036541037 -0.0027892026 -0.0030963225 -0.0019217428 0.004706196 0.0022846763 0.0030277015 0.0027141997 -0.001023388 -0.0010868639
restor -0.0049802614 -0.0049390383 0.0047369623 -0.004915486 -0.00362416 0.0032612544 -0.0045146677 -0.0023277842 -0.004556709 0.0039168713 0.0009917456 -7.97363e-05 0.0010116539 0.0023602892 -0.00072857924 0.00081406976 -0.0035011165 -0.0045591393 -0.00016679584 0.0004864546 -0.00018552516 0.0019231641 -0.0033298295 -0.002254864 0.0018230504 0.0027693699 -0.002203823 0.0015423332 -0.0018635329 0.0023546345 0.0016442474 -0.0036854246 -0.0022158374 -0.0015382074 0.0049839607 -0.0021127933 8.843899e-05 -0.0043598684 -0.0023754197 -0.0024688728 0.003032214 -0.0026323316 0.0019963416 0.0033523343 -0.0019299905 -0.003350549 0.0045479387 0.004946188 0.00081021094 -0.0010562394 0.0045306254 -0.001373118 0.0009370837 0.0013218477 -0.00211424 -0.0037331842 -0.0043896036 -0.004268419 -0.0048555904 0.004581092 0.00026582164 -0.0024849016 0.003457402 -0.0043521086 0.0035250203 -0.0024322146 -0.0025132312 -0.0045328015 -0.00044921148 0.0028687424 0.0049101408 -0.004803549 0.0020487253 -0.0030991624 -0.0032246734 0.0023884608 0.004683843 0.0043471907 0.0044307006 0.0026156553 -0.0008807496 0.0014639053 -0.0020145269 0.004951921 -0.003258056 0.0012022277 0.00044491465 0.0044143014 0.0039236792 -0.0033182232 -0.0024671848 -0.0008240559 -0.0029612982 0.002054558 -0.003518719 -0.0012095262 0.002448934 0.0012264381 -0.002055543 0.0028990924
lives -0.0023954913 -0.002779048 -0.0013634072 0.0011360695 -0.0027129538 0.0011331468 -0.00026073967 0.002535126 0.002732345 -0.003696913 0.0012736276 0.0007606821 -0.0043618903 0.0042202966 -0.004663075 0.0013933843 -0.00034448903 0.0032198683 0.0017879008 0.0038436565 -0.00016534959 -0.0005060544 0.0018616634 0.0011599064 0.0046086307 -0.0009827609 0.0012855994 -0.004542296 -0.0033955763 0.002145017 -0.0030645842 -0.0030820353 0.0039675944 0.0016967824 0.0016601763 0.0023398993 0.0018798504 0.0018427473 -0.0031690148 0.0047935266 0.0035619563 0.0030664979 -0.00026511072 0.0011294758 -0.0018742486 -0.0028248744 -0.0018175727 -0.0037026084 -0.00032559532 -0.00013411636 0.0039761905 0.0028926618 -0.0029543845 0.0044270903 -0.0027569784 0.0019245577 -0.0027537958 0.003822484 -0.0038545046 0.0041602277 0.0043595857 0.00048781786 0.0047808774 0.001519068 -0.0019762926 -0.0015902928 -0.003478323 0.001981174 -0.003404271 0.0032272183 0.00096031843 -0.00011082447 -0.00037497695 0.0003994353 -0.004872874 0.0038809415 0.0016430855 -0.0040223207 0.0008686955 -4.0162373e-05 0.003013767 -0.003876437 0.0023251018 -0.0010272985 -0.0036607876 -0.004510049 0.0027163117 0.0028625468 -0.0033765992 0.0010797074 0.004559824 -0.00027085864 0.004734445 0.00034197932 0.0032625613 -0.0014780337 0.00057322637 0.0006902485 -0.0005886353 -0.00057604007
great -0.00376114 -0.0031333724 0.0013890598 -0.0045204153 0.0004912697 0.0002643604 0.00391844 -0.0011616474 0.004861606 -0.0010476807 -5.7908646e-06 -0.00045864037 -0.003734084 0.0011298382 0.0038475138 0.0022453822 0.00071613444 -0.004335288 -0.0044234176 -0.0018141144 -0.0017761278 0.0005918712 -0.0025973648 0.00023483293 0.0009228696 -0.0032565694 0.0030839974 -0.0008586414 0.0003039489 0.0021342007 -0.002302138 -0.003197174 -0.0009590205 -0.004786568 0.0031154945 0.003505052 -0.0021014516 -0.004294173 -0.0042309985 0.0036608651 -0.0046012774 -0.0030474293 0.00080921507 -0.0028808292 0.0040269555 -0.0005901772 0.0022371344 0.0043786266 0.0025621138 0.0011671288 0.0035139867 -0.0045967917 0.0046113846 0.0023188696 -0.00028534734 -0.0007675843 -0.0037944936 -0.0033137908 0.0043976856 0.0020967387 -0.0004233203 0.00047987883 0.00025992203 0.004752517 0.0048934626 -0.0005302707 0.0006357973 0.0014472563 -0.0021818418 -0.00036892606 0.0012463403 0.00402813 0.00071577274 -0.001453565 -5.6621175e-05 -0.0024447409 -0.0028664847 -0.0041259546 0.0030258289 0.0021812248 0.0011066459 -0.0040917746 -0.003107225 0.0030157156 0.0043611974 -0.004174701 -0.00016445368 0.0020880117 -0.0045823916 -0.0023077358 -0.0037056594 -0.002416734 0.0022118567 0.0030172223 -0.0030328883 0.004866642 0.0047241286 -0.0015717319 0.0034310028 0.004943552
photo 0.0044726813 0.0027095885 -0.004561919 -0.0007796886 0.00042566747 0.003715685 0.0015321944 0.0020684649 -0.0032221647 0.0009872076 -0.001242965 0.0024363683 -0.00087147276 -0.0047529014 1.1249625e-05 0.004977676 -0.0026215387 -0.0024151907 -0.0016234543 -0.0015852186 0.003936376 0.0042022765 0.00024135104 -0.0033206537 -0.0039528036 0.0037556125 -0.0017338577 -9.829417e-05 0.00078646996 0.0028117688 0.0023792014 0.0010823855 -0.0027508251 0.004240396 0.0016571677 -0.0031972495 -6.9174675e-05 0.0033174753 -0.0004096336 0.0004043606 0.0016593526 0.00037139395 -0.0033294265 0.0012955534 -0.0024890576 -0.0014616279 0.0031211134 -0.0049742786 0.0018712549 -0.0033817694 0.0046169995 -0.0049500805 0.00249575 -0.000110909 -0.0045034694 0.0008066317 -0.0040252297 -0.003939781 0.0038217816 0.0011261106 0.0009328532 -0.003903233 -0.0024981177 0.0039092456 -0.0006598998 0.0009240738 -0.0025330656 0.00050510035 0.0046300115 0.0011073833 -0.00092961773 -0.0025080696 -0.0007902816 -0.0026139596 0.004198707 -0.0020016548 -0.001861723 0.0036981152 -0.0033811433 -0.00075109047 0.003534289 -0.0013238138 -0.002361937 -0.002273424 0.0010759656 0.00078837527 0.002932564 0.004813637 -0.0018731734 -0.004237013 -0.0019877958 -0.002370754 -0.0004642384 0.0035222878 -0.00038538192 -0.00021232684 -0.0033084238 0.0020707077 -0.0033186686 -0.0016562537
senior 0.003373546 0.001767317 -0.0028491737 -0.003127586 -0.0041155717 0.0021267685 0.0025111386 0.00035342583 -0.004283457 -0.00022992668 0.00078515266 0.0025276144 0.0025888765 -0.0045672064 -0.00424081 0.0037261911 0.0016866568 0.0031498035 -0.00018412022 0.0033160858 0.0014193313 0.0030110064 -0.004421592 0.004275158 -0.001295479 0.0038223388 0.0022788292 -0.0049610417 -0.0024257323 -0.000919979 0.004856524 0.0045164083 -0.00013414232 -0.00068782014 0.001190543 0.0037052634 -0.0015246392 -0.001865122 0.0007257515 -0.0012014696 -0.0019828267 0.00011705658 0.0017491298 -0.00382293 -0.0002769349 0.0036584416 -0.0007686968 -0.0021607361 0.00033725752 0.0042822706 -0.0029415681 -0.0035488927 -0.0009931497 0.0021317708 -0.0023274957 0.0043921485 -0.00080342224 -0.0029609841 -0.0012373701 -0.00088290585 -0.0031503732 0.0007850779 0.0033711991 -0.0012998441 0.00046646703 -0.0035107653 -0.0046323547 -0.002595981 -0.0017644821 -0.0012538646 0.00062164053 0.0021477067 -0.0001717839 0.0007024259 -0.0028959985 -0.00050950353 0.0016255014 0.003588835 0.0022304796 -0.00441965 0.001108462 -0.002419985 0.0015489382 0.0008168413 0.0046873805 -0.0026372708 -0.00033778456 0.0015679701 0.0021199756 0.0024510077 -0.0042411443 0.0036110936 0.0012011429 -0.001001998 0.0023251474 0.0029368328 -0.00069729314 0.0031797842 0.0021686205 0.0029642438
health 0.004942234 0.0015594932 0.0010096587 0.0010767886 -0.0013650801 0.0019337329 0.0009040985 0.003419412 0.003493784 -0.0022096222 -0.0012471463 -0.00015978198 -0.0031825528 -0.0025144448 0.0003595083 0.002846121 0.003247471 -0.0009952341 0.0041150297 0.003016395 0.0048066764 -0.0026093565 0.003194591 0.0016521041 -0.0046213586 0.0018046605 0.0003517933 -0.0009533034 0.0017861034 0.0016486519 0.0010416826 -0.0016513978 -0.0011443959 0.002179875 0.004877144 -0.0038032772 -0.0012685232 0.0010972006 -0.0014766698 -0.0004502398 0.0043121926 0.0039925445 -0.0033583087 0.0025693835 0.0011972355 0.0027340828 0.0019344968 -0.0035914434 -0.004365515 0.0047817137 -0.0035700155 -0.0047149286 0.0010119503 -0.0047615436 0.0020006865 0.0013897644 -0.0012920974 0.0016545032 0.0013105201 -0.0022697947 -0.0006469536 0.0009790562 0.0003165671 -0.004905264 0.0045890296 -0.0030634766 -0.0019264796 -0.0042710025 -0.0015122504 0.0009685328 0.0018129277 0.0035736114 0.00010628283 0.0028580495 0.0019245956 -0.0044878763 0.004115133 -0.003725547 -0.0014697838 -0.0010222491 -8.615718e-05 0.0037546786 -0.003377997 -0.00465007 0.0046821344 0.0018426529 0.002706462 0.0018494481 -0.0036968656 0.00029699603 -0.0041358336 -0.003842471 -0.0032714072 -0.0022257997 -0.004453605 -0.0042582382 -0.0027170617 -0.002215767 -0.003524099 0.0026910086
economist -0.0024798242 7.1069684e-05 -0.00023982427 -0.0043446673 -0.0018023846 -0.0032482098 -0.0004261933 -0.0029587925 -0.0008262767 0.0045198495 0.0035025 0.0032077795 0.0038506156 0.0022333146 0.004852814 -0.0030683312 -0.0017026803 0.0028582832 -0.00041491308 -0.0041286573 -0.0003689531 0.0024938064 -0.0033921592 0.004035623 0.0035104284 -0.0007378092 0.003047346 -0.002657692 0.00038500948 -0.0017584424 0.00080010516 -0.0010288998 0.0009089909 0.0034089577 -0.0014222893 -0.0008478206 -0.0007848647 -0.0008510992 -0.004419469 -0.0015247489 -0.0021145719 0.0038036508 -0.0005961512 -0.0049642823 0.004970593 0.00291065 -0.0030141957 0.004797527 -0.004911987 0.004958416 -0.00022249085 0.004528681 0.0035227926 0.00041844873 0.0021683525 -0.0032338568 -0.0045597246 -0.0040162136 -0.0013615611 0.0048733377 -0.00062307226 0.004648839 -0.0040525454 -0.0029136096 -0.002347278 -0.0019828205 0.0019733093 -0.0028252942 0.0011555848 0.004492843 0.0013245405 -0.0013228847 -0.0029390822 -0.0027010567 -0.00020191897 0.004343892 0.00048217567 1.9915653e-06 -0.000116200354 0.0034026862 0.003432177 -0.00074415666 -0.0037812905 -0.0017428305 -0.0024878536 0.0016972733 -0.0008622202 0.0021344065 0.0038752593 0.003338305 -0.0034662455 -0.0031663205 0.0040135654 -0.0015494116 0.0027960257 0.0032475928 0.00227581 0.000745225 0.000377776 0.0029326482
pharma -0.0011019831 -0.002419758 -0.003994867 -0.0030629805 0.0014048934 -0.0035719082 0.002422538 -0.0017252302 -0.0035765965 0.0012454839 0.0029510132 -0.0012638117 -0.004471238 -0.0049074884 -0.0032057508 -0.0018269003 0.0047679106 0.004690574 -0.003458028 -0.0038417685 -0.0038153885 -0.0032804103 -0.0015582974 -0.0038475809 0.0025813475 0.0016029647 -0.0035415515 -0.0031608983 0.004037386 0.0024787392 0.0030887509 0.00434212 -0.0011921894 0.002699541 -0.002012132 -0.0004376107 0.001193456 0.00019823531 -0.0029118864 -0.0032916933 -0.003701789 0.00020784154 0.0011984295 0.003892719 -0.0008439027 6.0136383e-05 0.001237818 0.0012171785 0.0036616898 0.0049854307 -0.0046210834 -0.0036911883 -0.0024035336 -0.0017235691 0.001732403 0.003908029 -0.0021925394 -0.004673473 0.004314885 -0.0035987769 7.243812e-05 0.0046611177 0.0011596709 -0.0020316788 0.003149698 -0.0031257074 0.0046343566 -0.0040517347 0.003069523 -0.000112847985 0.0034941384 -0.0012540828 0.0008708497 0.0026603676 0.0034954927 -0.0013852202 0.004861487 0.0038058793 -0.0018767212 0.0020956383 -0.0014000703 -0.0029973157 -0.002884758 0.00067596615 -0.0031701317 0.0037401472 -0.0046515614 -0.003055104 0.0022089947 -0.0026810453 -0.0027346709 0.0034103743 0.0027058735 -0.0023734134 -0.0012416769 -0.004648013 0.00095484534 0.004559505 0.0020181355 0.0026754998
location 0.0033249343 0.0027917738 0.00062155194 0.000174284 -0.004697596 0.00082877843 -5.67508e-05 0.0011461239 9.229151e-05 0.0012683006 -0.00295235 0.004978296 0.0049694986 0.0018759966 0.002846489 -0.002602777 -0.00063201244 -0.0041061654 0.000781201 0.0007608464 -0.0019883164 -0.0016998292 -0.0026227422 0.0022438955 -0.003900648 0.0013560043 0.0034588275 0.0023003835 -0.0012084745 0.0017885136 -0.0011280428 -0.004615794 -0.00496698 0.001663551 0.0016180341 -0.0013841867 -0.000391073 0.00337996 0.003022438 -0.0010129567 0.0025304973 -0.004995677 -0.0028333468 -0.0028748743 -0.0038742598 0.0036691646 -0.00033137843 -0.00019832847 0.00017119283 0.0015765553 -0.0007664768 0.0009803966 0.0038277768 0.0049563358 0.0011177469 -0.000614136 -0.0023085142 0.0021514152 -0.00077164505 0.0016155223 -0.0034467976 0.0011722725 0.002150323 -0.00093925995 -0.0027476174 0.0044902824 -0.0028717204 -0.003050027 0.0013675763 -0.0012104138 0.0045427824 -0.00044891014 -0.00093930436 -0.0030077808 0.0015185659 -0.0045602727 0.0040832376 0.0041153654 0.0013187587 0.0005605136 -0.0040564025 -0.0012139662 0.0025255654 -0.0032494597 -0.0013981073 0.004477333 0.0031460233 -0.0006279647 0.002379163 -0.0035709392 0.001779082 -0.0018832677 -0.0032301317 0.0026582608 -0.0031684937 -0.0043026954 -0.0049202307 0.0009891972 0.00079846336 0.0035911086
bracknel -0.0008646108 0.004153375 -0.0003150199 0.0032362132 -0.00221487 -0.0039969166 -0.00024985935 -0.0046687913 0.004038326 0.000324643 -0.0005604375 0.0018548215 -0.0032233237 -0.0041627563 -0.0027256808 0.0044589117 -0.0033137074 0.0014611988 -0.0019503845 -0.0022269709 -5.682648e-05 0.004844174 0.0023409694 -0.002302663 0.003865244 -0.0026196393 -0.0036461574 -0.0033465836 0.004776353 -0.004285549 -0.001910369 -0.00071470113 -0.0030206582 0.0011063121 0.0020095203 -0.003703033 -0.0033535622 -0.0013092855 0.0042667533 0.0016685612 0.0014644127 0.0034536484 -0.0005031847 0.0023060562 -0.003965741 -0.0040282416 -0.0048644673 -0.0011371461 0.0038245036 -0.00012302048 0.001039967 0.0015223311 -0.0031646315 0.00022580422 0.0013897079 0.0019776025 -0.00068366085 0.004173314 -0.0012936987 0.0022775028 -0.0011988425 0.0027050525 -0.0036521952 -0.0038637999 -0.0033405654 0.0032014512 -0.004661109 -0.0020815523 0.0024195865 -0.002795785 -0.0015031499 0.0007976981 0.00436289 0.0017457388 0.0015966003 -0.002349561 -0.0045814444 0.004263017 0.0019222503 0.0048611974 -0.00071229256 0.0021556083 -0.004962689 0.0010835467 -0.0033595052 -0.0037317618 0.0014857756 -0.0016876295 -0.0031777576 -0.0032148615 -0.00053848006 -6.1034127e-05 0.0024928187 0.0016918057 0.002388252 0.0016241194 0.0010122787 0.003922066 -0.0018100045 0.0026471738
berkshiresalary -0.0039661736 0.0014342039 0.0047191395 0.002127426 0.0018868864 -0.00013682843 -0.0036824064 0.003145249 0.0020146633 -0.0034693216 -0.004863136 -0.0020277645 0.0034597002 0.0008824417 -0.004284448 -0.0048190067 -0.0044239783 0.0043444205 -0.0045283646 0.002119632 0.0030473915 -0.0021672945 0.0049662376 -0.002167364 -0.0039288145 0.0035960607 -0.0017349428 -0.0010620657 0.0017638976 0.004763555 0.003153743 -0.0035076255 0.0021683662 0.004498081 0.0015918593 0.0012160005 0.0030511036 0.0012437806 0.0032678526 -0.0003759216 -0.0022415482 -9.371242e-05 0.0033129286 0.00048150087 -0.004100227 0.0044678226 -0.0017093101 0.0029319914 -0.0007892488 -0.0002883802 -0.00031768435 0.0018651339 0.0042745923 0.0046374244 -0.00017211073 -0.0049831085 -0.0047442243 -0.0019284392 -0.0037210295 0.004785284 -0.00033832865 -0.004070296 0.0025385285 -0.0045408923 0.0019612515 -0.00038106475 -0.004096829 0.0005421633 -0.0031325049 -0.00420916 -0.0016450533 0.0027437862 0.002095719 0.004892913 -0.0034498603 -0.0019732108 -0.0016992253 0.004164894 -0.003296308 0.0049810335 0.0019959828 0.0043784822 0.004680096 -0.00088248495 -0.0012882107 0.0020256254 -0.000813454 -0.0048909914 0.0011655163 -0.001254851 0.00011723817 -0.0008955268 -0.003709466 0.0014378019 0.004025937 0.0020942364 -0.0023443433 0.0017301902 -0.0048151053 -0.00077906874
freelance -0.0028927096 -0.00054373464 0.00027042406 0.0045820796 0.002723496 -0.0014205144 0.0023962804 0.004708081 0.00032077605 -0.0007106592 -0.0031816824 0.0028647364 -0.00078119483 -0.0026608943 0.0038211627 -0.004685207 -0.0030152875 0.0027019633 0.003455569 0.004688439 -0.0040730946 -0.0028385017 -0.004640445 0.0035324981 -0.000222611 0.004486622 -0.0047114408 -6.516117e-05 -0.00022520225 0.0027320324 -0.0028545714 0.003036238 -0.0014713648 0.002706207 -0.0028031077 0.0006421381 0.0033137307 0.0047956775 0.001917396 -0.0015978196 -0.0039228094 0.00211033 0.0012947412 -0.003525767 -0.0017074909 -0.0041204975 0.0031718437 -0.003295473 -0.0019343188 0.0033703563 0.0030844065 0.0019113459 -0.00046820453 -0.00037624565 -0.0012408562 -0.0033016955 0.004228737 0.0017979565 -0.00050440966 -0.0017246436 -0.0038996013 0.0027261297 0.004298162 -0.0002527957 -0.0034082793 -0.001085833 0.0036288833 0.00256769 0.0037231178 0.0020653752 0.0024644798 -0.0021245824 0.0010267326 0.00354214 0.0018061938 -0.0020055077 -0.004963152 0.0029531394 -0.0005753819 0.0010586509 0.0016843214 0.004113534 0.0027339195 -0.004984247 -0.003524887 -0.0031927545 -0.0038679743 0.0025781547 0.0041412585 0.0024364737 0.0031386148 0.0019060508 0.0032280728 -0.0010092685 0.004702692 -0.0028898066 0.004761697 0.0033952845 -0.0039624064 -0.003627636
book -0.0045508845 -0.0019182188 0.0030613062 -0.00040697286 -0.0011272102 -0.0013704121 0.0027840484 -0.0033479726 -0.004865028 -0.00096699316 0.0002188047 -0.002168292 -0.0016657577 -0.0034773704 -0.0021154026 -0.0034628082 -0.0031027454 -0.0035798755 -0.0006791847 -0.001315443 0.0020930797 0.004684692 -0.0026543338 0.0018412069 -0.0022291709 0.0013567558 0.00050825445 0.0026974098 -0.0033661034 -0.0028493893 -0.0027883353 -1.5918386e-05 0.0019178418 -0.00064118765 0.0025340528 -0.0024076635 -0.0021972386 0.001492023 0.002448408 -0.00044137347 -0.002293157 0.0010644345 0.00465244 2.7319871e-05 -0.0020216994 0.0009860127 0.0042616315 -0.0029952887 0.0001427961 0.0022692087 0.0011556336 0.002296055 -0.00011636857 -0.0035334437 -0.0020009337 -0.003168254 -0.0037201364 -0.001128678 -0.00066736597 -0.0044238972 -0.00030088445 -0.0045069396 0.0011453034 -0.0035870215 -0.00048202425 -0.0010977844 -0.00049410074 -0.003736412 0.003878204 -0.004356942 -0.00074444467 -0.0025317557 0.002207147 -0.0021924924 0.0003643717 0.004934702 0.0007753996 -0.0022118792 -0.0029349609 0.0028625717 -0.0046810363 0.004521394 0.00021761343 0.0017175616 0.00076118036 -0.000980516 0.00011120354 -0.003998266 0.0046138656 -0.0011517057 0.0033760145 -0.0034839606 -0.0046386146 0.004128143 -0.0013172689 0.0010968038 -0.0026290996 0.0015030965 -0.00044698245 0.00094821677
flight -0.004801049 -0.004270697 -0.002528506 0.0034465806 0.0044099195 0.0040119123 0.0015771084 -0.0032087148 -0.0048815007 -0.0016363653 0.0042338474 0.0045930496 0.0010679133 -0.004132417 -0.0021260786 -0.00069000386 0.0034664029 -0.0003126859 4.5667886e-05 0.0014849664 -0.0021818322 -0.0012618903 -0.002536161 -0.001022262 0.0031820098 0.0034693987 0.0017840546 -0.0049432744 0.004026556 0.001487292 0.0028691282 0.0037678024 0.004428631 -0.0011229037 0.0038153979 -0.004276471 0.0024490077 -0.002835028 -0.001753943 -0.0004956959 -0.0045086876 0.004406071 -0.0009547038 -0.00092619314 -0.0040573627 -0.00080858974 0.0005069216 -0.003452114 -0.004470709 -0.0009001249 -0.004261968 -0.0024446084 -0.0008561675 -0.0020565018 -0.002708701 0.0014090765 -0.0044807824 0.0046246788 4.0100793e-05 -0.00058719073 0.004939239 0.002922696 -0.002222461 0.0011332417 0.0012226241 -0.0044317883 0.0020577575 0.0018832833 0.0015225796 0.0030168619 0.0039403806 -0.0031526552 -0.0015733767 -0.0010215171 0.004249444 -0.0008425166 0.004340207 -0.0034400262 -0.0005697997 -0.00014012647 0.0013929589 -0.0039486405 -0.003898472 0.00142327 0.0020205898 -0.0009776033 0.0038771548 0.004895037 3.8940593e-06 -0.0027709564 -0.0033552796 0.0017960634 0.002127113 0.002388011 -0.000112492984 -0.00028835892 -0.0043846504 0.003363298 0.0016906961 0.001766242
rememb -0.0010152012 0.0026902328 0.0001073341 -0.0026232908 -0.0006724806 0.0032548497 -0.0017837009 -0.0023920154 -0.0031335752 0.003042459 0.0026531378 -0.002309177 0.0039355177 -0.002900913 -7.78555e-05 -0.00051443477 0.0043722233 -0.0020172587 0.0036341236 0.0031260324 0.002518063 -0.0028040241 -0.004136623 -0.0032807307 -0.0037112413 0.003044472 0.0026141985 0.0007203159 -0.0007735434 -0.0012456601 0.0016280127 0.004754592 -0.0045976527 0.0042492086 -0.0024903088 -0.0004938937 -0.0012032209 0.002938846 -0.0023280436 0.0008239245 -0.002986177 0.0026409894 0.00024115096 0.0035700088 -0.003137713 -0.00096829986 -0.0048940782 0.0045649367 -0.0035858653 -0.0020734835 -0.0022741198 0.00025503308 0.00030504598 -0.0041084844 -0.0036680184 -0.0036500117 0.004285917 -0.0030705766 0.004261254 -1.773635e-05 -0.0018847308 0.003433345 -0.003528014 -0.00078801037 -0.0044793747 -0.0050019985 -0.0026468155 0.00085465977 0.0035946618 0.0038798323 0.0016731372 -0.003812715 4.613755e-05 0.0021836997 0.0041556978 -0.0009301784 0.0039803893 -0.0013687679 0.0005284026 -0.0014203585 -0.0044491626 -0.0019605015 -0.0024234506 0.00032609908 0.00070477993 -0.0010472462 0.0043678996 0.0043125898 -0.00057256955 0.004512717 0.002886557 -0.0044408482 0.00019475367 0.0022173685 -0.00053291855 0.0034994085 0.0015142685 0.0030990764 0.0010185494 0.0025322333
came 0.0026348166 0.0017762416 -0.0034748414 -0.004590449 -0.003945622 -0.0026309895 -0.004098707 0.0029585478 0.00209476 0.002408865 0.004475604 -0.00027975885 -0.00060141104 -0.0027306348 -0.003988233 0.003520829 0.00207382 0.00055646116 0.004452149 0.0010785332 -0.0014167972 0.0030162083 0.0023702646 -0.0043356675 -0.00047047096 -7.2258146e-05 0.0019407081 -0.0010177386 0.00053327536 -0.00047008548 -0.00037836598 0.0026694154 -0.004043266 0.0033869133 0.0020907428 0.0034602107 0.001164971 0.002616674 0.0041328 0.000822504 0.0007274144 -0.00083595124 -0.0016132185 -0.004585891 0.0034909318 -0.0043367264 -0.0016859765 0.0017322692 -0.00015773892 0.002657146 0.002795518 0.0024674495 0.0006401859 -0.0016483958 0.00028699104 0.00045216037 -0.0011963692 0.003254566 -0.0023780707 -0.0031530692 0.0006830033 -0.0033060438 -0.003467391 -0.002168806 0.0015641503 0.00047156546 0.00021437496 0.0028078551 0.00034041828 0.0039417692 -0.0015921072 0.0017096488 -0.00045164736 -0.000838377 0.0017643715 0.0038043945 -0.0029649513 0.004326107 -0.002869184 -0.00035204212 0.0045135077 0.0005094885 -0.0040374114 0.0037452104 -0.0002287689 -0.0032986512 0.0025689234 1.3527424e-05 -0.0018696147 0.003163533 -0.004169128 0.00028802344 -0.0020037752 -0.0012436672 0.002922478 0.0015471329 -0.0022087242 0.0022644885 -0.0017842593 -0.00046542264
wa 0.0028678866 -0.0009440085 0.0021599482 -0.0049627014 -0.00015451541 0.0033921478 -0.003345529 0.0016484936 0.0044148993 0.0047128806 -0.004864898 0.0016579601 0.000110210276 -0.0032272853 0.0045921854 0.0028736736 0.0038729233 0.0023858575 0.0030525583 0.0034686301 -0.0019838773 0.004724128 -0.0020361964 0.0036737565 0.004698364 -0.001289205 -0.0049726954 -0.003711711 -0.001842586 0.0039959606 0.0044940813 -7.0627204e-05 0.002984534 0.0035574525 -0.003649124 -0.0017896586 -0.00032998063 9.578541e-05 0.0020848804 -0.003432572 0.004927507 0.0012502215 0.004949329 -0.000578938 -0.00047222737 -0.001226734 -0.00085871207 0.0018722466 0.0036718468 -0.0014760129 -0.00012680792 -0.0017038389 0.0033560954 -0.0012889713 -0.0017064593 -0.0045481636 0.0018310465 -0.004766388 -0.004590466 -0.0014039944 -0.0025007944 -0.0031067098 0.0038058402 0.0017567575 -0.0016130938 -0.004967778 0.00497855 -0.002719618 -0.0018115039 0.004713942 -0.0018082409 -0.0035662863 -0.0014280421 -0.0038788791 -0.0032162613 -0.0035049506 0.002002172 0.0030114034 0.0024880364 -0.0036165684 0.0035929447 -0.0038550256 0.002512487 -0.0034557865 -0.0022085255 0.0036041057 -0.0016575815 -0.00034864334 -0.0011312388 -0.0028277053 -9.696704e-05 0.00047748085 0.0005976872 -0.00335761 -7.247816e-05 -0.00073583296 0.0022684336 0.0018713928 -0.0025599175 0.0040612984
close 0.003401 0.003132857 -0.0021557435 -0.0005857197 -0.004621884 6.076867e-05 -0.0011831282 -0.0039192922 -0.00048333436 -0.0030127545 0.0018038929 0.0014185157 0.0030085668 -0.0035163031 0.0018397908 -0.0022605353 -6.722023e-05 0.0042071505 0.004875385 -0.0019127639 0.0035947035 0.0043698135 4.5567816e-05 0.0010425883 0.0005023775 5.168637e-05 0.0020979496 0.0012338208 0.0006162763 -0.002140616 -0.0037149012 -0.0026433752 0.0046568126 -0.001226856 -0.0043678414 0.0002809589 -0.0033924151 -0.0030670124 0.0014955858 0.00129656 0.0010721817 -0.0026307695 -0.0027735701 -2.4255167e-05 0.0022845566 -0.0021409492 0.0041503687 0.003012927 -0.0015113356 0.00080619036 0.0016658119 -0.0037656145 0.0019350208 -0.004301972 -0.0027952283 0.0015319631 0.00412774 -0.0014231389 0.00081016443 0.0006248081 0.0003010225 -0.0014436543 0.0017762294 -0.0039825644 -0.002018172 0.0021215987 -0.003417236 0.0027082071 -0.0004267649 -0.0043372777 -0.0007543152 0.00084422913 0.004256209 -0.0038916115 -0.00014540678 -0.0034156276 0.003016489 0.0042110863 -0.0037362832 0.0032463272 0.0010081317 -0.0028676852 -0.0014141934 0.0002752383 0.0029201158 -0.0025936197 -0.004726872 -0.000759513 0.0031607994 0.00084300974 -0.004743824 8.191635e-05 -0.0028139548 -0.002040884 -0.002053211 0.0020323726 -0.0027946418 0.002821993 0.0048826397 0.0037001641
meetings 0.003514719 -0.0032922472 0.002918963 0.0007472263 0.0010632406 0.0006115896 -0.004996409 0.0015611101 -0.00074552244 0.003994874 -0.0033101207 -0.00081027905 -0.0019936548 -0.004686657 -0.0047629597 0.0033948745 -0.0046942625 0.0048754863 -0.0022424976 0.0049005714 -0.002122628 0.0008120376 -0.0026293688 0.002529824 -0.0012528575 0.0028573275 -0.0001106672 -0.0011386804 -0.0044326116 0.003648229 0.0010058568 -0.0015080885 -0.0039209723 0.00020091477 0.0013357816 0.0022438571 0.0038892902 2.8708784e-05 -0.0011175942 0.0033138816 -0.002927787 0.0035698144 0.0021971462 -0.0039600832 0.0025732904 -0.0016407633 -0.0033532653 -0.0022429784 -0.00370134 0.0014552601 0.0039460156 0.00055453274 -0.0023121873 -0.001191146 0.004681259 0.0039200564 -0.00041693883 0.004148116 0.0030332096 -0.0035242995 0.0043396116 -0.0029192653 0.0047219098 0.0029488609 -0.0028905037 0.0007446739 -0.00067860814 -0.0047992016 -0.001471115 -0.0012604622 -0.0007790901 0.00026288582 0.0029122818 0.0026158516 -0.0027741848 -0.004938568 0.0035178596 -0.0049588624 -0.002097002 -0.0018709272 0.0012051834 0.003765405 0.0030589344 -0.0038111298 0.0023377514 -0.0012653252 0.0016898107 0.0009854755 0.0048233727 -0.0041749245 0.0038690965 0.0030936329 0.0030653873 -0.0026493159 0.0026783731 -0.003698808 -0.00096764247 0.0019838943 0.0019144937 -0.0012861408
enjoy 0.0015435829 -0.004616289 -0.0027026995 -0.0030145172 -0.0020848005 0.0028665897 -0.0030462143 0.00021866258 -0.0017909681 0.0027514114 0.001989388 7.9431065e-06 -0.0012488287 -0.0036737996 0.00028715245 0.002270083 0.00083505455 -0.0022829159 0.0037281315 0.0044922135 0.00047919498 0.004454538 0.0021857317 -0.004544927 -0.0035098563 -0.0002746519 -0.0046075354 0.0034277604 0.00045140128 -0.0020718751 -0.0027522198 -0.00045498923 0.003293829 0.0018854686 0.004411287 0.00055515004 0.0002950738 -0.004429563 0.0011147415 0.0005808615 -7.606639e-05 -1.931312e-05 0.001177961 0.002316485 -0.004498318 0.0047925957 0.0008190243 -0.0040579224 -0.003769504 0.004201952 0.0012673072 3.843631e-05 -0.003706162 -0.0015604973 0.00039227903 0.0037821967 0.00060657115 -0.0020995715 0.0041702087 0.0031936064 0.0044898693 0.004465282 -0.0004915633 0.001586221 0.00025489344 -0.0018508486 -0.0004893769 -0.002102902 0.0027534661 -0.00468057 0.004899686 -0.004392658 -0.0023198933 -0.0013861138 0.00079214934 -0.0019106435 -3.3181415e-05 -0.0015760248 -0.0048588593 -0.0013822725 0.00088204845 0.0012201905 0.0021487747 0.0033405337 -0.002846725 0.0020811383 -0.0048380867 0.00248065 0.0028594641 0.0009709566 -0.00038142342 -0.0005979348 0.0029404035 0.0017171414 0.0020781418 -0.0038872862 0.004493431 -0.0025138643 -0.0005136831 -0.00054363307
rt -0.0009219113 -0.0043352423 -0.0019078772 0.0007568394 -0.0038350963 0.0022055279 -0.001791811 0.0025091895 0.0019275716 -0.0035453353 -0.004861208 0.00464135 0.0026229757 -0.0037051528 -0.00065892696 -0.0011240126 -0.004238999 -0.0015068428 0.0020090255 -0.0036948458 0.00046412507 -0.0014006996 -0.002282651 -0.0010179103 0.00016783655 -0.004398454 0.004232526 -0.0023608722 0.0021872085 -0.0038443364 0.0019789026 0.0013499237 -0.0012195576 -0.00078690844 0.0017191684 -0.0011162257 0.000729605 -0.00075056765 -0.001958432 -0.0033763617 -0.0029324766 0.0026276328 0.0004660043 0.0033766853 -0.00040422176 -0.0034941847 -0.0008954945 -0.0005779493 0.0021930467 -0.004698141 -0.0030747831 -0.0016364027 -0.0035664258 0.0032161572 0.0018101233 -0.0006977743 0.0040247473 -0.0037174586 0.0028376745 -0.0048363716 -0.001738124 0.0014154852 0.0005278073 -0.0014649294 0.0036361618 -0.0030889697 -0.0034033356 0.0021021052 -0.0026475457 0.0017862947 0.0014650909 0.0021867466 0.003722078 0.003813313 -0.0010851205 0.003924376 -0.0038054967 -0.0007499767 0.00013545222 -0.002787224 -0.0022821224 0.0005649898 -0.00068446045 0.0049722753 -0.0020073168 0.0032800715 -0.00022515883 -0.0022552086 -0.0022068217 0.0044172932 0.0022927742 0.0032503486 -0.0024808715 0.0015830675 0.0016402522 0.0039188378 -0.0013671237 -0.00062834425 0.00050204067 0.0025773365
soccer -0.00024024025 -0.004204932 -0.0048215264 -0.0020845996 -0.0030238011 0.00079294835 0.002430938 0.00026443286 -0.0045560272 0.0012588107 0.0021325855 -0.0012862667 0.00020572844 -0.0037875557 -0.0019836652 -0.0005075085 0.0036539247 0.003597639 -0.0049276636 -0.0031142945 -0.0038382155 0.0014260861 -0.0017877852 0.00010637152 0.002471052 -0.0045668413 -0.000239377 -0.0044360184 0.0041261106 0.0041825166 -0.001701784 -0.0017135937 -0.0024457811 0.0047937366 -0.0030920838 -0.0008000776 0.0043114703 0.00067984 0.0020094728 -0.00033922537 0.0013439629 -0.0035193784 -0.003073488 0.0010528498 -0.003522662 -0.0039829374 -0.0013814205 -0.0041243983 -0.0012684361 0.0028628996 -0.0032260946 -0.0033726336 -0.00051179784 0.0010241825 -0.0049823606 0.004114075 0.0048479005 -0.0026949788 -0.00065981515 -0.0031348108 -0.00087032927 0.0031030865 -0.0005447221 0.00041770368 -0.004087846 0.0006249234 4.320647e-05 -0.0036537226 -0.004355648 -0.003732449 0.0038676444 0.0026944906 -0.004303878 0.0032744503 -0.0027439313 0.0023294135 0.0035729937 0.00092338875 0.0025114631 -0.0016925393 0.002558249 0.0027229914 0.0022516777 -0.0002615233 -0.0028054812 -0.0033433288 0.0040373816 0.003978854 0.0046770712 -0.004514297 -0.0011158054 0.0031581877 -0.0026254174 0.00066262233 -0.004154777 -0.002893381 0.0022703176 0.0047978065 0.0016133664 0.0012105998
rang -0.003472967 -4.862413e-05 -0.0003539276 0.0028945666 -0.00041603934 0.004746042 -0.0018894152 0.0010470746 0.0037733892 0.0042525986 -5.700426e-05 -0.0021206746 0.0023605963 0.004765861 -0.0022836528 0.0042094444 0.0013815033 -0.0015617021 -0.0019717563 -0.0007466482 -0.0015474742 -0.0021838157 0.0033989714 0.0021557112 0.0036940603 0.0010561858 0.004091162 0.0019341133 0.0046057147 0.0048498777 0.0015525122 -0.0010791334 -0.0039222254 0.0028402898 -0.0005110124 0.00027977076 -0.0033106927 -0.0036956486 0.0040139374 0.0029825398 0.004457574 -0.0010194293 -0.00253157 0.0011325232 -0.0024547891 0.0010446317 0.0021918258 0.0012187513 0.00016720881 0.001080418 -0.0006234194 -0.00020613214 -0.0037817224 0.00089769677 0.0038593118 -0.0030001516 -0.00022126273 -0.00078593893 0.0017124811 -0.001548796 0.00036163453 0.002527393 -0.0034147417 0.0037666638 -0.0012635972 -0.0040719206 -0.0029038184 -0.001428962 0.0014877024 0.0007388043 -0.004475661 -0.0049142963 0.0011700797 -0.0024910262 0.0048670257 0.0017955616 -0.0004477223 -0.003372148 0.0005286544 0.0017640872 -0.0024510764 0.0045117135 2.2948352e-05 0.0043205577 0.0027568676 0.00045545172 -0.00032651392 0.0033691071 -0.0034919586 -0.0049317754 -0.0027374444 -0.0038893893 -0.00024058558 0.0025294253 0.00043675365 0.0031157543 -0.0020922977 -0.0012376814 -0.0007425298 -0.0024660905
bln -0.0018262882 -0.0034720863 -0.0016623016 -0.0017358112 0.0011850802 0.0041465694 -0.004264415 0.00017351996 -0.00091730134 -0.0040041767 0.0038037146 0.0011628785 -0.0025394275 -0.0041010673 0.0008354909 0.0017997212 -0.004930744 -0.00023796206 0.001438692 0.0009353931 -0.004444718 0.0037841857 0.0011955737 -0.00499458 0.0015088806 -0.0011871684 0.004745805 -0.0040602977 0.0029089963 0.0036814609 -0.0040565645 0.0017856342 -0.0040574707 -0.0009844407 -0.004013988 0.00056766614 0.0024056893 -0.0026978166 -0.0034456581 -0.0018477864 0.0039419425 -0.0022092687 -0.0033653574 -0.00079979823 0.0017585001 -0.0012238922 0.0031070064 0.0047285045 -0.0040523564 0.0015756375 -0.0041108793 -0.0008092091 -0.0011793652 0.0040342915 -0.0021221023 0.0034023402 -0.0033866847 0.0015305568 0.0037806001 0.0034386548 -0.0019653556 -0.0008619479 -8.086854e-07 -0.0037493042 0.0035687762 -0.001260933 -0.0030219029 0.0043386603 -0.0031191506 0.0020921843 -0.0004035869 0.00045293017 -0.0011523608 0.00069494086 -0.00029581765 -0.004091964 0.00056847173 0.0031398202 -0.0019285283 0.0011578522 -0.0014805574 0.0039772815 0.00018832265 -0.004217589 -0.0021290702 -0.00059161475 0.0044536325 -0.00052156945 -0.003379507 0.0017465035 -0.002527918 -0.0021540103 0.0031356753 -0.0048638717 -0.0024460622 0.0023909486 -0.0010822221 -0.0024861456 -0.0005900867 -0.004789516
blnft 0.0026141256 -0.0008821777 -0.0023788947 -0.0047948323 -0.0032991662 -0.0029443228 -0.003953379 -0.004926711 -0.0047840695 -0.0025882148 0.00075933547 -0.004593591 0.0015220135 -0.0036178227 0.00222605 0.003413506 0.0005070101 -0.0045593427 -0.00039168214 -6.2561674e-05 -0.0007186135 0.0027501537 -0.0004597935 -0.002731853 -0.0030101987 -0.0030186272 0.004760902 -0.00019416166 -0.0026601467 -0.0035682567 0.002540315 -0.004139889 -0.0022367772 0.0044635427 0.00020579813 0.004650594 -0.00083091826 -0.0035555412 -0.0046216287 0.0032282951 -0.003932004 0.0044091684 0.002136574 -0.003888961 -0.0015138669 0.0044892095 0.0032149644 -0.0016237819 -0.00105688 0.0012039366 0.004417899 0.004966757 0.002258632 -0.00022655116 -0.0028186797 -0.0005390793 0.00022354274 -0.0013161281 0.0018217467 0.0043170783 0.0016619841 0.002023995 -0.0018722233 -0.0035649298 0.0046079787 -0.0035992225 0.0026509329 -0.002151324 -0.0042733895 -0.0012406628 0.0019069001 0.0037435885 -0.004889283 -0.004248229 0.0032415516 -0.003473531 0.0031821185 -0.0019125495 -0.0014349354 -0.0012709018 -0.0029139244 0.0016414749 0.00028652977 -0.0032024868 -0.0014146789 0.004669121 -0.004262301 0.0014975169 0.0037057428 0.003230289 0.000120812634 -0.0044052554 0.0043479004 -0.0037302861 -7.9087724e-05 -0.00094128324 -0.0046574194 -0.0015814115 0.0036961192 0.0030464132
aug -0.0021552865 -0.0025986861 -0.00047671984 -0.0016134739 0.00081420445 -0.0025116096 -0.0030177743 0.0021106766 0.0023856645 -0.0045268857 0.004218876 0.0003826626 0.0034762803 0.0030639183 0.00024681806 0.004058144 -0.004790818 0.0028306595 0.004561736 0.00088982563 0.0001267217 0.0047804476 0.0006736991 -0.00041338717 0.0028768645 -0.0015697014 -0.002279992 0.0030378734 0.004526198 -0.0029126368 -0.0011994023 -0.0009136564 -0.0022438916 0.004034387 0.00082324183 0.0043079047 -0.004814711 -0.002638338 0.0035518808 -0.0041781235 -0.0022988007 0.0031929635 -0.0023941975 0.004336642 0.0006429941 -0.0035014425 0.0045772134 0.001629081 -0.0042930394 0.0045224815 0.0019587846 -8.989601e-05 0.0013057993 -0.0027643456 0.0005784973 0.004864139 -0.0031196128 0.0040672645 -0.0020149555 -0.0005759884 -0.0018088612 -0.0039168564 -0.0018371328 0.0025877166 -0.0017617624 0.0014470036 -0.0020152652 -0.0037125868 -0.00026564053 -0.0014984182 0.0048620347 0.0042296154 0.0025386368 0.0043719974 -0.0010275791 -0.004853006 -0.0016793233 0.0011767992 0.0028045962 -0.0026354925 -0.003055681 0.0006214151 0.0006801167 0.00086446624 -0.0037401551 -0.004044934 0.004305855 -0.0035551488 -0.0046045403 0.0011790877 0.0009880384 -0.0040888856 -0.003948866 -0.004965478 -0.0024503092 -0.0024576557 -0.00330458 0.0021726605 -0.0019569069 0.0003949667
reuters 0.0014687073 -0.0019809054 0.0023537767 0.0043391385 0.0041694506 -2.5105903e-05 -0.0016672352 0.002102153 -0.003408455 -0.0032327229 -0.004995689 0.0032595673 0.004741317 0.002230599 -0.0048528165 0.0041658035 -0.003637929 -0.0024807425 -0.004873675 0.0020373864 0.00467207 -9.362445e-05 0.0033221117 0.0025997183 -0.0034133766 -0.0019803592 0.0017803728 -0.0018122419 0.004262555 0.00063616753 0.0022414902 -0.0039012015 0.004589992 -0.004402566 0.004498784 0.0029875953 -0.0034002287 0.003497043 0.0012601627 -0.0031739997 -0.0002436573 -0.003779154 -0.004001568 -0.0014402546 0.0017746981 0.0019460183 -0.00015602865 0.0017712073 0.0026275467 -0.0034185208 -0.0032335822 0.0014909506 -0.0043239775 0.0027873586 0.0024531356 -0.0018529418 0.0002021015 0.0032552034 0.004259969 -0.00033064274 -0.004440371 -0.0002319627 0.003343145 -0.00037153644 0.0020870846 0.0025118021 -0.00449922 -0.00036212886 -0.00065812137 -0.0030441456 0.0016072077 -0.0046690674 -0.004567583 0.0009400692 -0.002435709 0.0028087306 0.0035367685 0.0034068634 0.004405112 0.00071124197 -0.002970362 0.0049243174 0.004149433 -0.0031246585 0.004490474 0.004345272 0.003405383 -0.0039735525 -0.0015132172 -0.0019460141 0.0010881895 -0.0027501767 -0.0019416498 -0.001713683 -0.0020030912 -0.0033447705 0.0049090516 -0.004045039 0.0004794895 -0.002933376
lndoneul 0.0027538012 -0.0047750827 -0.0039237216 -0.0008707931 0.0032715483 -0.0016287487 -0.004868166 0.0031825844 0.0019229226 -0.004534494 -0.0039722356 -0.00013284 -0.0041885674 -0.0014650598 0.0035010495 -0.0026603395 -0.0015944946 0.0006643466 -0.0020470582 -0.0019352783 -0.00047036257 0.0032153064 0.0029199957 -0.0038693838 -0.0045828866 0.004533736 0.0028031566 0.0027757974 -0.004900763 0.0031915817 0.0041126413 -0.00016230083 0.0023485662 0.0023334422 -9.0778456e-05 -0.0016151235 0.0018496562 0.0021627517 0.0009556874 0.002878064 0.0024668872 -0.0004877107 0.0011721298 -0.003350395 -0.0018388332 -0.0020103084 0.0038384178 0.0016197878 0.002010132 0.0017886696 -0.004865639 -0.0038708264 -0.002255029 0.00012933784 0.004419752 -0.0038392094 0.0006144502 -0.004182594 -0.00047431764 0.0048331036 0.00045660604 -0.003589711 0.0029115968 0.0020673603 0.0044137454 0.0007898413 0.0004577647 0.0008050445 -0.0030821296 -0.0040361662 -0.001943234 0.0034406385 0.0038691068 0.003299868 -0.0018530815 0.00067014876 0.00030308223 -0.0016244873 -0.0014540721 0.0041862126 -0.00469697 -0.002313151 -0.0043937657 0.00086793856 0.0049467157 0.004989758 0.00039883508 0.002218121 0.0021252688 -0.00410405 0.00039033688 0.004369476 -0.0017338318 0.0009077267 -0.0035187467 -0.00096158264 -0.0030778071 -0.002578132 -0.0016576697 -0.0046235016
suggest 0.0021298814 0.004332588 -0.0023348408 0.0045953323 0.0049593747 0.0017858347 0.0019023269 -0.003951807 0.0013937036 0.0021288805 0.001971351 0.0033119428 0.0025600612 0.00049739337 0.004501159 -0.000811291 0.0005298093 0.003811732 -0.0035978742 -0.004344331 0.0036769386 0.0010440638 -0.0015063937 0.0035877335 0.0020276369 0.00089034106 0.0032533503 -0.0028744307 -0.0028828536 0.0028778913 -0.0037637714 0.0012741355 0.0010402275 0.002448286 0.0030874612 0.00051888265 0.0013333271 -0.0012089695 0.002531101 0.0017790655 -0.0018797168 -0.0018611276 -0.0021008796 -0.0011949136 -0.0016870627 -0.002253064 -0.004653737 0.0005122014 0.0029924964 -0.0010304549 0.0017934525 -0.00013234852 -0.0033108739 0.0021945771 -6.2439765e-05 0.0012698513 0.0032862623 -0.0015785462 -0.0048747677 3.3121647e-05 0.004178604 0.0039404994 -0.0032025764 -0.0026891136 -0.002526697 -0.0046449397 -0.0020108281 -0.0035827179 0.0045674285 0.0011581304 -0.0045721363 0.0030097074 -0.0048758183 0.0044280216 -0.0020816585 0.00037004126 0.0022529794 0.0030933574 -4.033654e-05 -0.0003593457 -0.004859701 -0.0006417781 0.0013888982 0.0043832175 0.0005316638 0.004603642 -0.004516219 -0.00043301805 -0.0020886408 -0.0005055893 0.003734208 0.0010753516 -0.001724949 -0.000536058 0.00047875894 0.0032565766 0.0045407517 -0.003253883 -0.004810052 0.0017393058
disturb -0.00058286835 0.0045034336 -0.001453532 -0.0025150988 -0.0015052374 0.0046584504 8.820979e-05 -0.0013537561 -0.0031861912 -0.0026721999 -0.00021056985 0.0048249788 -0.0042395666 -0.0010337533 0.003078242 0.0012700044 -0.003335856 0.00035156662 0.0010031648 -0.0036394391 -0.003476522 -0.0017790245 -0.004499034 -0.001450046 -0.0016210406 -0.0020854855 -0.0036050016 -0.0043751104 -0.0012225787 -0.00044534117 -0.003215289 -0.0035899528 -0.004562164 -0.004883671 0.0028119972 -0.0017046563 -0.0032001473 -0.00172849 0.004958049 0.002127186 -0.0047422354 -0.0013736095 0.00061242766 -0.0005356615 0.0011384668 0.0048694895 -0.0044977777 -0.0036557245 0.0048814653 -0.0023293267 -0.002798705 -0.000911765 -0.00061611726 -0.0007511272 -0.00034489066 -0.0047262786 0.0017126906 0.0033714082 0.0047663646 -0.0020037019 0.0037657567 0.00029639227 0.0028338043 0.00176284 0.00026341033 0.0020460435 -0.0020380253 0.0048198076 0.002080143 0.002021239 0.0037228197 -0.0031399883 0.000101345504 -0.003584947 0.00087201636 0.00476361 0.0044771414 0.0027895216 0.0037692063 0.0021653161 0.002650043 0.002298328 0.0016627052 -0.0026694536 -0.0043807044 -0.0026905125 0.0020639994 -8.885868e-05 -0.0033200465 -0.0032588262 0.0013640219 0.0008859255 0.0015359101 0.0022546728 -0.00077980576 -0.0007759007 0.0006553995 -0.004167893 -0.00091311196 -0.0011731049
protest 0.0015369672 0.000153811 -0.0021613706 0.004573383 -0.0033581094 0.003698482 0.0009000629 -0.0010643658 -0.003908941 -0.0047562583 0.0009928946 -0.0022743214 0.00040190748 0.0019906154 0.00019560907 0.00038246386 -0.002476516 0.004224261 0.0011930834 0.0034964944 0.0024831733 0.00014781354 -0.0026440688 0.001126134 -0.0041596973 0.0020377636 0.0024724656 0.0008250526 -0.0025645373 -0.00027254588 0.0025020733 -0.0024843798 0.004955937 -0.0012806813 -0.0012029137 0.003533752 -0.0011567989 0.0005849899 0.0037303162 0.001067578 0.0044136946 0.0020598276 -0.0048973886 0.0013329048 0.003183478 0.0012791351 0.0049861553 -0.0011954869 -0.0040758806 -0.0026800227 0.003102071 -0.004964527 0.0009770744 0.0037798816 -0.0019509473 0.0004005568 -0.004343861 0.004236011 0.0026941306 -0.0011388486 0.0027371373 0.0049994695 -0.00018297855 0.00386474 -0.0037386413 -0.0025749817 0.004074352 0.002104407 0.0016992947 0.00267774 -0.0030150083 -0.0015183957 0.0047588735 0.003492197 -0.0028473167 -0.0036926637 0.0014495347 0.0026771622 -0.0005311805 -1.0863019e-05 -0.0023438882 0.0013165246 0.001925454 0.0024822268 0.0027461872 0.0022120916 0.003039471 0.0026762167 -0.0024493996 0.0017708755 0.0018416498 0.0003442642 -9.580004e-05 0.0021188622 -0.0028678214 -0.0013690423 -0.0005709334 -0.002344836 -6.768276e-05 -0.0005002415
